0.000000
0.000000
0.000000
0.000000
0.000000
0.000000
0.000000
0.000000
0.000000
0.000000
0.000000
0.000000
0.000000
0.000000
0.000000
0.000000
0.000000
0.000000
0.000000
0.000000
0.036300
0.076900
0.064950
0.108790
-0.108180
0.123960
-0.019340
-0.125960
-0.072050
-0.069200
-0.095020
0.062580
0.124340
0.085220
0.043200
0.057390
-0.078700
0.022750
-0.114820
0.093410
-0.038140
0.076640
0.050570
-0.038570
-0.071510
-0.038150
-0.010340
0.003910
-0.022240
0.060880
-0.109090
-0.038070
-0.108280
-0.033510
-0.043760
-0.100560
0.029190
0.021190
0.087500
-0.030960
0.044180
0.029410
-0.067560
-0.047060
0.046130
-0.097800
0.089450
0.009890
-0.080610
0.093540
-0.000820
0.094220
0.087400
-0.052790
0.010060
-0.104840
-0.092160
-0.052910
0.070330
-0.056470
0.020630
-0.033300
0.036810
0.116970
-0.013220
-0.093620
-0.105000
-0.054860
-0.043310
0.091610
0.009300
0.013130
-0.133700
-0.056680
0.070220
0.017540
0.091870
-0.006890
-0.012310
0.101540
0.033940
0.096480
0.034500
-0.094630
-0.053990
-0.059260
-0.033420
-0.017850
0.090530
0.054830
0.012430
0.013970
-0.017390
0.045040
0.033990
0.060750
0.098330
-0.094070
0.019030
-0.064370
0.085440
0.108760
0.115650
-0.113710
0.009200
-0.037490
-0.090560
-0.039410
-0.113920
-0.056730
0.094690
0.079120
-0.076960
0.112540
0.107970
-0.120300
-0.034190
0.075760
-0.122040
-0.047840
-0.063910
0.086430
0.037590
-0.093710
-0.086710
-0.035250
-0.075680
0.130430
-0.096400
-0.052810
-0.129430
0.100540
0.085550
-0.074670
-0.034300
0.011850
0.036990
-0.083440
-0.084590
-0.067820
0.080270
0.026670
-0.040000
0.041940
-0.097960
-0.131800
0.028150
-0.014060
-0.024740
-0.041080
-0.001730
-0.053020
-0.108840
0.103540
-0.002070
-0.071760
0.096650
-0.086210
0.004480
-0.076000
0.128580
0.095170
-0.038530
-0.081160
0.051920
0.076170
-0.021500
0.058790
0.090840
-0.000370
0.000000
0.000000
0.000000
0.000000
0.000000
0.000000
0.000000
0.000000
0.000000
0.000000
0.083150
-0.015700
0.030810
0.094370
0.112690
-0.074770
0.012650
0.037340
-0.063990
-0.031770
-0.060740
-0.007480
0.070030
-0.058980
0.093680
-0.002080
0.110330
0.009040
-0.037520
0.061000
0.053450
0.102590
-0.075250
0.069020
-0.082820
0.066010
-0.073980
0.013780
0.071460
0.034840
-0.049180
-0.037120
-0.014270
0.106470
-0.054140
0.045700
-0.119880
0.051590
-0.068440
-0.009030
0.029210
-0.065930
-0.024210
0.101460
-0.035100
-0.093360
0.014240
-0.090530
0.038680
-0.047990
0.056810
-0.112500
-0.075930
0.021730
0.123660
0.004560
-0.074520
-0.134860
0.024460
-0.130320
0.120740
-0.022450
0.053010
0.097470
0.044740
-0.014420
0.058340
-0.004870
0.049910
0.004780
0.113610
0.081780
-0.047230
-0.078850
-0.043590
-0.096780
-0.128210
0.050880
-0.056440
0.058050
0.086270
-0.078990
-0.037320
0.082990
0.030140
-0.053440
0.095650
-0.013930
0.086860
0.062310
0.024240
-0.027110
-0.084780
0.071670
0.120150
0.019830
-0.089140
-0.012200
-0.055290
-0.041710
-0.062960
0.057580
-0.039960
-0.008020
0.052800
-0.074980
0.090200
0.036250
0.036510
-0.001480
-0.057840
0.079160
-0.019280
-0.020150
0.064050
0.051290
0.105540
0.005280
-0.073790
-0.100640
-0.074300
-0.110990
-0.061540
0.056360
-0.029880
-0.106810
-0.128680
0.014880
0.071190
-0.118110
-0.023510
-0.008770
-0.079820
0.040030
0.077910
0.055610
0.094570
0.009890
0.030040
0.104890
-0.094860
-0.106460
0.078380
-0.025180
0.045120
-0.007020
0.111790
0.059130
-0.049590
-0.036380
-0.021370
0.058460
-0.145360
0.071310
-0.119470
-0.103050
-0.022090
0.059690
0.080810
0.094510
-0.065410
0.076210
-0.093050
-0.109330
0.117350
-0.091940
-0.077130
-0.135180
-0.077760
0.028370
-0.115510
0.078560
-0.079590
-0.031960
0.045910
0.111140
-0.058360
0.104230
0.082920
-0.115150
-0.081790
-0.065850
-0.074920
0.085410
-0.106100
0.095820
-0.084000
-0.002170
-0.064750
0.025180
0.017660
-0.043210
0.098480
-0.122880
-0.059800
0.099690
0.086940
-0.085420
0.100840
-0.012510
-0.006760
0.063060
0.045830
0.117780
0.009320
0.021160
-0.023070
0.139020
0.083350
-0.081230
0.037140
0.080560
0.000020
0.063480
0.060940
-0.081640
0.021840
0.084490
-0.034210
-0.012820
-0.070370
0.064730
-0.019260
0.108610
0.030980
-0.034650
-0.065060
-0.099030
0.021280
-0.057470
0.031380
-0.115430
0.065070
-0.077860
0.054460
-0.085170
-0.019360
0.040580
0.017000
0.020050
0.128870
-0.067710
0.002870
0.058430
0.086860
0.040090
0.096530
-0.141670
-0.095640
0.006410
-0.033900
0.017800
-0.110090
0.019790
0.092110
-0.092540
-0.042350
-0.118310
-0.087290
0.020860
0.114150
0.044740
-0.149890
-0.016430
0.013080
-0.028000
-0.119330
0.022220
0.025300
-0.033680
-0.012380
-0.017660
-0.146820
-0.092060
-0.022780
-0.036390
0.113870
0.062340
0.083530
0.097670
-0.019650
-0.058100
-0.156000
0.033050
-0.041600
-0.018020
0.038550
-0.095060
-0.097090
0.111910
0.084050
0.066840
-0.135360
-0.078170
0.089740
0.112540
-0.056580
-0.079400
-0.026820
-0.019000
-0.115980
0.096380
0.024660
0.033650
0.127620
-0.069270
-0.003350
-0.026750
-0.081590
0.029470
-0.028080
0.033860
-0.003250
-0.053670
0.092360
0.073920
0.114540
-0.004780
-0.029490
-0.085330
0.112210
0.040210
0.032450
-0.063890
-0.061370
0.080510
0.066550
0.072680
-0.065260
0.096360
0.076430
0.085430
-0.125720
-0.025000
0.085570
0.071210
-0.062200
-0.059910
-0.126760
0.025490
-0.017890
-0.072190
-0.092380
-0.061060
-0.130730
-0.105780
0.050080
0.008610
0.083310
0.040190
-0.011990
-0.034230
-0.141640
-0.041540
-0.028270
-0.047950
-0.091150
-0.120040
-0.132110
0.071310
-0.045650
0.041980
-0.030100
-0.029110
-0.075470
-0.054610
-0.111220
0.052230
-0.057760
-0.113410
-0.033500
0.080290
-0.075950
-0.019500
-0.010430
0.009730
0.062620
-0.113670
0.060780
0.108320
0.065650
-0.085960
-0.094060
-0.035920
-0.036230
0.033820
0.074610
0.056940
0.049440
-0.013750
-0.027220
0.012360
0.000580
-0.098890
0.105300
-0.002970
-0.107010
-0.061360
0.019060
0.015390
0.058070
0.048380
0.072220
0.019770
-0.050330
0.053050
0.022020
0.016120
-0.099890
0.101860
-0.080570
0.056460
-0.131350
0.063240
-0.037270
-0.000410
-0.117480
-0.064670
0.064870
0.094400
0.073950
-0.093270
-0.061050
0.094480
-0.094150
0.098170
-0.015220
0.085990
0.017930
-0.005720
0.099050
-0.085810
-0.084330
-0.084140
0.065370
0.026910
0.011960
0.032300
-0.085640
0.106320
-0.082710
0.084790
-0.127570
0.088320
0.023090
0.057100
0.028370
0.084780
-0.083220
-0.104440
-0.102630
0.092730
0.084210
0.108790
0.043980
-0.121290
0.017440
-0.045260
-0.004880
-0.053990
0.097490
-0.105780
0.029930
0.040300
-0.016320
0.099670
-0.036140
-0.026430
0.025070
0.111510
-0.118230
0.034700
-0.003600
-0.021300
-0.001430
-0.003310
-0.080630
-0.072980
-0.092310
-0.038690
0.074150
-0.017330
-0.030070
-0.108540
0.101320
-0.035510
-0.040200
-0.000140
0.139430
-0.013870
0.046760
0.077000
-0.164580
-0.030400
0.136690
0.051690
0.113440
0.027250
0.100490
0.118470
0.038500
-0.075860
-0.119730
-0.023260
-0.077590
-0.044750
-0.067380
-0.116830
0.031990
-0.050830
-0.089420
-0.068310
0.021450
-0.047370
0.040800
-0.112930
0.068110
-0.021640
0.094940
-0.123800
0.005340
0.094450
0.008650
0.017750
-0.021050
-0.030720
-0.008220
-0.026790
-0.136180
0.100820
-0.126670
0.025380
-0.008420
0.104060
0.012450
-0.169940
0.036070
0.043630
-0.183720
-0.002060
-0.093850
0.130010
-0.031260
0.180050
-0.068460
-0.005370
-0.059420
-0.009380
-0.000680
0.080230
0.014190
0.004660
0.075740
0.068800
0.049580
-0.039370
-0.048660
-0.078390
-0.000010
0.053490
-0.038840
0.054190
-0.041570
-0.016520
-0.101820
-0.105720
0.089820
0.069330
-0.057210
-0.016440
0.053480
-0.098680
-0.095690
-0.028270
-0.083620
0.114520
-0.064090
-0.129510
-0.132540
-0.021520
0.082130
-0.125020
-0.119920
-0.069110
0.109650
0.129070
0.111510
0.069670
-0.067020
-0.062430
-0.030440
0.078830
0.075020
0.031720
-0.050870
-0.090970
-0.071560
0.026340
0.050110
-0.000610
0.073540
0.004120
-0.020040
0.020230
0.045770
-0.128430
-0.094100
-0.087030
-0.111560
-0.093100
0.123410
-0.103810
-0.031190
0.110580
0.004590
-0.059660
0.109080
0.100150
0.048630
-0.115340
-0.063760
-0.116710
-0.030450
0.108950
0.016500
-0.000610
0.008730
-0.092170
0.049590
-0.060330
0.028470
-0.041770
-0.111530
-0.089930
0.051130
0.060760
-0.058370
-0.113020
-0.116120
0.092960
-0.070490
0.058770
-0.032610
0.068680
-0.050210
-0.059250
0.041160
0.039920
0.036390
0.029250
0.048060
0.079060
0.007930
-0.132360
-0.064290
0.013470
-0.094270
0.089320
-0.024610
0.158770
-0.141050
0.012250
0.024240
-0.074960
0.017230
0.042940
0.112010
0.021010
-0.124440
0.119500
-0.011330
-0.103810
-0.055490
-0.123530
-0.030660
0.124330
-0.001480
-0.075520
0.129670
0.047160
0.009110
0.083230
-0.014270
0.091070
0.129360
0.010570
0.092340
-0.106960
0.085130
-0.055060
0.060010
0.003800
-0.062260
-0.006100
0.022300
0.084080
-0.029790
0.056500
0.175190
0.100890
0.147560
-0.053930
-0.090390
0.015330
-0.158330
0.060840
-0.077760
-0.066730
0.192150
-0.056500
-0.000650
0.164860
-0.040390
0.086690
-0.010930
0.038320
-0.184240
-0.133850
0.110530
-0.138340
0.063170
0.216150
0.091360
0.034790
-0.035840
-0.007880
-0.167390
-0.035020
-0.098130
0.039240
-0.133670
0.062410
0.051780
0.052040
-0.015640
-0.057320
0.057880
0.232880
-0.075990
-0.014880
-0.047150
0.091010
0.240370
-0.082430
0.036590
-0.106480
-0.022770
0.186530
-0.076950
0.036130
-0.044460
0.000170
0.145950
0.095730
0.015860
-0.009190
0.017800
0.070320
-0.093970
0.128550
-0.127670
-0.020440
-0.082810
0.137680
-0.016510
0.090100
-0.046780
0.110040
-0.024020
0.124310
0.016930
0.012820
-0.092280
0.142060
-0.104610
-0.045130
-0.037510
-0.041480
-0.047940
0.094930
0.063810
-0.097160
0.059700
-0.047550
-0.083220
-0.034210
-0.064020
-0.039890
0.016720
-0.046430
0.029610
-0.048090
0.014650
-0.048720
-0.004260
-0.052170
-0.029610
0.005560
-0.093070
-0.098670
-0.076810
-0.107060
0.021800
0.012030
0.064290
-0.013710
0.004500
-0.073430
0.032280
0.090240
0.035170
0.099460
-0.139730
-0.010670
-0.017230
0.065770
0.027850
0.098230
-0.046520
-0.002530
-0.110880
-0.066140
-0.019670
-0.004800
-0.053160
-0.079130
-0.056520
0.062540
0.037480
-0.082850
-0.014700
0.124310
0.022730
-0.102240
0.025770
-0.009510
-0.048290
-0.063750
-0.017070
0.052210
-0.107850
-0.020180
-0.017040
0.063670
0.051580
-0.064450
-0.112540
0.007470
-0.187160
0.075600
-0.001150
-0.121550
0.043090
-0.047570
-0.053130
0.058710
0.046210
-0.043090
-0.079610
0.090660
-0.147160
-0.088980
0.076260
-0.055510
0.050030
0.077230
0.150530
0.151280
0.057690
0.002610
0.004870
-0.015870
0.065310
-0.028190
0.044930
0.102580
0.069650
-0.087690
0.215400
0.106610
0.169040
0.049600
-0.064010
-0.002460
-0.083270
-0.011860
0.126020
-0.065180
0.092890
0.020860
0.121000
0.171310
-0.167420
-0.080180
0.100480
0.082410
-0.012120
-0.024870
0.129690
-0.031600
0.165960
0.129240
0.020580
0.071280
-0.170420
-0.146080
-0.086030
-0.112440
0.098510
-0.194720
-0.007310
0.193020
-0.106620
0.021240
-0.105310
-0.036710
-0.252040
0.007620
-0.007840
-0.035260
-0.010120
-0.017720
0.070090
-0.037650
-0.121630
-0.033730
-0.172400
0.040710
0.075640
-0.089460
-0.076500
0.160720
0.275390
-0.007440
-0.022280
-0.027440
-0.063970
0.166770
-0.060450
-0.096600
-0.032830
0.206620
0.196300
-0.091100
-0.089530
0.060640
0.174650
0.197420
-0.157250
0.110060
-0.056130
-0.036140
0.211020
-0.025150
0.075100
0.060590
-0.040550
0.170540
0.036150
0.011250
-0.039660
0.019870
0.113050
0.012760
0.058830
-0.064430
-0.082700
0.019470
-0.163080
0.041330
0.075500
-0.106540
-0.070530
-0.015680
-0.116790
0.030010
0.063030
-0.128640
-0.035980
-0.003890
-0.077620
-0.035570
-0.083330
-0.004770
-0.044720
-0.084110
0.007940
-0.076830
-0.112880
0.060560
0.123830
-0.111500
-0.085030
-0.004300
-0.014010
0.121910
0.038750
0.034010
0.038570
-0.127440
0.049620
-0.052870
-0.113100
-0.101520
0.083280
-0.049030
-0.014780
-0.043960
-0.050400
-0.069980
0.070440
-0.123070
0.048200
-0.053280
0.056370
0.009340
-0.082750
-0.095090
-0.034340
0.107360
-0.083700
0.066930
0.062910
-0.000610
0.020220
-0.035290
-0.070430
0.052760
-0.092980
-0.091440
-0.033910
-0.009780
0.057080
0.002220
0.097550
-0.203230
0.087960
-0.053100
0.016160
-0.125070
0.068120
0.049100
-0.035150
0.066720
0.116710
-0.253350
0.041660
0.069070
-0.187710
0.032400
0.027350
-0.075660
0.024700
-0.044930
0.152160
0.012230
-0.005290
0.160860
-0.013590
0.041440
-0.022010
-0.192470
0.029210
-0.218910
-0.069580
0.205050
0.038450
-0.046540
-0.006920
0.041250
0.109690
-0.031430
0.103610
-0.007750
0.118950
0.243690
0.006310
-0.079670
0.137290
0.053630
0.063140
0.014290
-0.075410
0.035390
-0.005530
-0.010830
0.145040
-0.017550
0.213280
-0.048560
0.220460
0.057950
-0.124520
0.048000
-0.103970
0.119280
0.143310
-0.088930
0.251970
-0.037760
0.176910
0.231630
0.092160
0.098930
-0.171270
-0.048320
0.050650
-0.011100
0.188690
0.012620
0.142880
0.071190
0.022560
0.003900
-0.096800
-0.115100
-0.250220
-0.081020
0.023000
-0.064510
-0.076290
0.063580
0.020630
-0.122910
0.036500
0.025660
-0.289940
-0.190300
0.021960
-0.152150
-0.093410
0.014780
0.092870
-0.086130
-0.055460
-0.071950
-0.114860
-0.016280
-0.051100
-0.115440
-0.103720
-0.033230
0.204150
-0.037040
-0.028590
0.085650
-0.122940
0.174960
-0.016920
-0.089540
0.086960
0.064590
0.131810
-0.031880
0.003870
0.098130
0.029160
0.101800
0.026660
-0.008880
0.007190
0.035790
0.020370
0.075160
-0.089480
-0.041000
-0.060340
0.155620
0.080280
-0.015610
0.097080
-0.055120
-0.064810
0.004890
-0.126150
0.042390
0.129100
-0.075270
0.000350
0.140340
-0.088840
-0.125100
-0.080760
0.119180
0.103460
-0.104240
0.141770
-0.004480
-0.095140
0.152540
-0.058670
0.013080
-0.038560
-0.014680
-0.063770
-0.091430
-0.089420
0.011840
0.053240
0.078340
-0.048150
-0.117630
0.005110
-0.071730
0.090230
-0.046160
-0.073580
-0.004840
-0.055230
-0.126960
0.144730
0.062420
0.096900
0.080440
-0.070580
-0.085970
0.026410
0.012960
-0.007510
-0.100260
-0.074750
0.019210
-0.004480
0.054060
0.010090
-0.130530
0.071110
-0.105550
-0.022100
0.001740
0.002320
0.086930
0.074340
-0.014780
-0.064920
-0.078130
0.010420
0.022940
-0.065440
0.032070
-0.065840
0.085040
0.103900
0.035080
-0.016600
-0.137130
0.041810
-0.015280
-0.060700
-0.021300
-0.128630
-0.008940
0.085880
-0.023680
-0.026900
0.025460
0.128050
0.028720
-0.116250
-0.053970
-0.223120
-0.086410
0.042080
-0.076690
0.091080
0.148950
0.128410
0.101680
-0.030340
-0.033690
0.020180
-0.007310
-0.033330
0.010800
0.128670
0.011210
0.154750
-0.154300
0.055540
-0.012090
0.149210
0.058940
0.066600
0.059790
0.051090
0.061770
0.189420
-0.076750
0.229080
-0.174880
0.196630
0.136380
0.142630
-0.051040
-0.178840
-0.013600
0.056920
-0.100090
0.136000
-0.166710
-0.049370
0.079600
0.091260
0.126010
-0.147250
-0.003650
0.000020
-0.008560
-0.041890
-0.065910
0.035980
0.095900
0.221100
-0.043210
0.008310
-0.023890
0.001080
-0.070600
0.039950
-0.051070
-0.181270
-0.206610
0.132670
-0.108350
-0.170550
0.005640
-0.169350
-0.063000
0.213140
-0.101840
-0.152300
-0.171270
0.067270
-0.240880
-0.113420
0.181170
-0.240560
-0.062860
0.015290
-0.047680
0.115170
-0.108850
0.214230
-0.012580
-0.046990
0.226800
-0.120910
0.112890
-0.057970
-0.083760
-0.038770
0.080650
-0.004950
0.075610
0.013690
0.065830
-0.074430
0.187220
-0.130880
0.006800
0.050850
0.033820
0.053030
-0.068350
-0.003180
0.125390
-0.102250
0.107050
-0.053370
0.087470
-0.016230
-0.111800
0.085240
-0.078140
-0.121160
0.053170
0.081010
-0.011040
-0.093190
0.032540
-0.167230
-0.007010
-0.010450
0.023900
-0.009880
-0.018710
-0.047180
-0.063090
-0.065580
-0.042180
-0.027030
-0.077870
-0.094590
-0.144010
-0.068240
0.009150
-0.093650
-0.057530
-0.012060
0.001320
0.021330
-0.047710
-0.091060
-0.083110
0.010350
-0.031580
0.023880
0.056740
0.079740
0.035510
-0.048010
-0.013440
-0.014490
-0.003680
-0.097530
-0.023300
0.061710
-0.086060
-0.071780
-0.007480
-0.091900
0.081660
0.043550
0.052480
-0.037790
-0.170780
-0.076510
0.052320
-0.098340
0.097210
-0.202600
0.111750
-0.061310
0.009080
0.033200
-0.200250
0.027360
0.177570
-0.077910
0.026090
-0.008680
0.036840
0.105040
0.075990
0.016570
-0.179040
0.121960
0.125800
-0.038700
-0.001420
-0.178210
0.035390
0.114510
-0.011850
0.128300
0.112480
0.007900
-0.028910
-0.117580
0.137110
-0.136240
0.095080
-0.053010
-0.023420
0.006630
0.209460
0.074610
-0.002330
0.037290
-0.108630
0.107500
0.006030
-0.042300
-0.093330
-0.001360
0.110570
0.104850
0.003750
0.165220
0.022180
0.066860
0.096040
0.098210
-0.008170
-0.201810
0.100940
0.106870
-0.110550
0.268860
0.001730
0.109110
0.068800
0.181900
-0.004260
-0.164360
0.011480
0.355870
0.026420
0.215640
-0.065480
-0.078880
0.125790
0.311720
-0.099720
-0.155340
-0.128540
0.180880
0.015700
0.068170
0.075310
-0.035910
-0.074890
0.176730
-0.152800
0.018230
-0.139210
-0.117930
0.013500
0.160850
-0.172790
-0.094780
-0.045660
-0.123990
-0.100930
0.080750
-0.006320
-0.197380
0.031000
0.118820
-0.081290
0.014790
-0.009190
-0.000380
-0.035120
-0.156220
-0.019420
-0.295980
-0.071340
0.009710
-0.030930
0.082980
-0.134060
0.094990
0.038580
-0.021350
0.140410
-0.308720
-0.011520
-0.205760
-0.159350
0.048840
-0.016540
0.079710
-0.029490
-0.027680
0.116050
-0.105840
0.060320
-0.151610
0.064330
-0.036720
-0.054800
0.174500
-0.103010
-0.101120
0.177970
0.058950
0.120320
0.089310
0.152760
-0.018420
-0.055480
0.042470
0.108980
0.131510
0.001280
0.085990
0.023670
0.043810
0.095790
-0.057150
0.007980
-0.138180
0.010240
-0.055400
0.046830
0.023460
-0.105960
-0.175740
-0.033270
0.113060
0.018970
0.054950
0.024480
-0.005480
0.057550
-0.010100
-0.048610
-0.058690
0.093170
0.116160
-0.016410
-0.043240
0.011250
0.069930
-0.096960
-0.017350
0.051820
0.058770
0.033310
0.062480
-0.030390
-0.081760
0.107880
0.011750
0.068680
0.050750
0.002160
-0.031760
0.018460
-0.049880
-0.095760
0.080960
-0.059790
-0.063380
-0.013770
-0.060620
-0.112590
-0.144360
-0.034720
-0.111910
0.099100
0.020500
-0.019570
0.149490
-0.190410
-0.104720
0.116100
-0.157260
0.027580
-0.147990
-0.104100
0.067720
0.045330
-0.000540
-0.003950
0.013940
0.175770
-0.098750
0.105360
-0.123980
-0.029020
-0.038020
0.273500
0.096950
0.034240
0.050950
-0.034200
0.030790
-0.059130
-0.265120
0.139550
-0.047050
0.136690
0.004250
0.035420
0.025860
-0.099950
0.056220
0.014030
-0.039170
-0.117400
-0.001910
-0.068880
-0.005080
0.287950
-0.009400
-0.035920
0.156890
-0.080080
0.164640
-0.166520
0.175900
-0.107460
-0.034930
-0.020150
0.239610
-0.060030
0.163710
0.091910
-0.012300
-0.036860
0.079830
0.056790
-0.020810
-0.033840
0.105810
0.027670
0.159720
-0.057290
0.029610
0.072280
0.023670
-0.090090
0.036540
-0.120850
0.082850
0.179270
0.275070
-0.026690
-0.094660
-0.027010
-0.069170
-0.097770
0.052320
-0.016130
-0.100470
0.168510
0.066620
-0.201200
0.009670
-0.133520
-0.050510
-0.159340
0.138530
-0.117700
-0.238010
0.029050
0.249790
-0.175170
-0.084510
-0.162120
0.022670
-0.029590
0.091500
0.026690
-0.098730
0.053140
0.033300
-0.011570
0.124120
-0.079290
0.120760
-0.105770
-0.135650
-0.015690
-0.174420
-0.126490
-0.058010
-0.086140
0.091060
-0.155000
0.100320
-0.079490
-0.177880
-0.016690
-0.045070
0.056290
0.045120
-0.023860
-0.051800
-0.082350
0.092740
0.039880
0.004510
0.092380
0.115220
0.249740
-0.020580
0.002970
-0.063020
-0.161690
0.108200
0.018680
-0.078120
0.063130
0.059730
0.147660
-0.002750
0.150960
0.015300
-0.083660
-0.077450
0.169050
-0.061340
-0.057080
0.147570
-0.166440
-0.019710
0.108600
-0.102400
0.084480
-0.114440
-0.079320
-0.006060
-0.027850
0.040460
-0.008790
0.040930
-0.103310
-0.038910
0.099570
0.069340
0.020600
0.007490
0.087060
0.069460
-0.098460
0.033740
0.059830
0.064110
-0.152820
-0.067130
-0.020190
-0.070310
0.103440
0.060090
-0.005480
0.043330
0.094780
-0.092670
-0.079330
0.066130
0.176310
-0.105940
0.054560
-0.094350
-0.075300
-0.034800
0.007320
-0.173720
-0.050920
0.069660
0.150920
-0.100040
-0.120830
-0.127550
0.275020
-0.209990
-0.057520
-0.250930
0.022250
0.184900
0.007520
-0.001300
0.079760
-0.105510
0.091350
0.086750
-0.071770
-0.196590
0.007510
0.058040
0.428290
0.264170
0.001420
-0.063590
-0.009170
-0.073010
0.128150
-0.133310
-0.101010
-0.099070
0.148720
-0.058080
0.196240
-0.057480
-0.115970
-0.228860
-0.069090
0.068130
-0.049840
-0.095480
0.151780
0.014920
0.028730
-0.008800
0.129610
-0.047740
0.030740
0.167060
-0.147000
-0.182090
0.222550
0.057410
0.015290
0.048370
0.194700
-0.034980
0.082770
-0.013990
-0.108110
-0.130560
0.113890
0.146670
-0.093070
0.187860
0.177410
0.238520
-0.057900
-0.006120
-0.086970
0.002430
0.032520
0.178810
-0.088430
0.054750
0.165570
0.111370
-0.184440
-0.022900
-0.210590
-0.050800
-0.027900
0.123920
-0.118480
-0.082900
0.050870
0.090370
-0.079620
0.091900
-0.085850
-0.265680
-0.087130
0.155500
-0.137650
-0.027570
0.027250
0.129720
-0.174750
0.114230
0.044890
-0.147590
-0.030880
0.172280
-0.071240
-0.035710
0.026070
-0.101580
-0.041110
0.065440
-0.112050
0.051250
0.054780
-0.128980
-0.012080
-0.034350
-0.038000
0.003700
-0.069580
0.048550
-0.034190
0.023760
-0.021500
-0.115490
0.060260
-0.073210
-0.001140
0.071120
0.141220
-0.055460
0.076440
-0.007800
-0.055410
-0.075590
0.158750
-0.049260
0.285880
0.055490
-0.014400
-0.051300
0.066790
0.016470
-0.099820
-0.084550
0.098840
0.107340
0.005420
-0.013120
0.054640
-0.100410
0.096040
-0.160570
-0.009630
0.017890
0.086740
0.111100
-0.180590
0.007450
-0.005640
-0.035950
-0.123260
-0.083590
-0.096180
-0.048350
0.123020
0.053340
0.049070
-0.105920
-0.075220
0.013940
-0.108000
-0.082140
0.041490
-0.061530
0.055290
-0.101250
-0.022140
-0.095620
-0.008740
-0.061500
-0.105750
-0.036870
0.017200
-0.075520
0.062800
-0.071030
-0.139660
-0.029330
-0.055350
-0.074210
-0.148490
0.097030
-0.031150
-0.101770
-0.081650
-0.034100
-0.115050
-0.010330
0.067110
-0.098770
-0.125750
0.170460
0.021950
0.032620
0.022600
-0.162140
0.188590
-0.033830
-0.108200
-0.172940
0.063560
0.103580
-0.027640
-0.032380
-0.060400
-0.019610
0.073520
0.138700
0.017850
-0.270680
0.077150
-0.070900
0.319650
-0.025270
0.060070
-0.003590
-0.039560
0.009110
0.141070
-0.097040
0.001720
-0.125650
0.086510
0.057250
0.127030
-0.009400
-0.109150
-0.227720
-0.002530
-0.157530
-0.069510
-0.159600
-0.040460
0.013190
0.041830
0.049620
0.101160
-0.120620
0.174950
0.009600
-0.110830
-0.269860
-0.008840
0.080400
-0.114640
0.087880
-0.098810
0.059240
0.099130
0.000940
-0.002360
-0.059300
0.093680
0.058350
-0.264770
0.225040
-0.062250
0.247380
0.101870
-0.026400
-0.207940
0.001850
-0.076470
0.030050
-0.232430
0.135360
-0.037840
0.070160
-0.057640
-0.029750
-0.034740
-0.087560
-0.183730
0.102310
-0.172440
0.158170
-0.141770
0.141510
0.012910
-0.134060
-0.000150
0.031560
-0.034220
0.207630
-0.214580
0.198750
-0.125560
0.074200
0.092170
-0.002070
0.013300
0.205800
-0.131420
-0.047730
-0.180510
-0.023870
-0.029370
0.008600
-0.116050
0.090690
0.013250
0.026080
0.060470
-0.097530
-0.125630
-0.053080
0.128690
-0.147460
-0.052770
0.131580
-0.136190
-0.013810
0.078610
-0.157900
-0.081280
-0.098480
0.045810
-0.126900
0.032800
0.150390
-0.036690
0.025680
-0.057250
-0.003180
0.194860
0.095400
0.169630
0.054950
0.108400
-0.115020
-0.142550
0.078670
-0.022420
-0.016060
0.175310
0.114880
0.146800
-0.035390
-0.003860
-0.095350
-0.139210
-0.124500
0.095990
-0.064530
0.058710
-0.062320
0.008730
0.061900
-0.017730
-0.067650
0.069260
0.038800
0.039470
-0.004780
0.052360
0.009860
-0.047330
0.065990
-0.086430
-0.097310
0.010560
-0.013800
-0.081500
-0.077600
-0.093270
-0.020390
-0.013720
-0.113880
-0.072440
-0.028970
-0.156150
0.029970
0.090750
-0.056180
0.074790
0.078640
-0.045170
0.110490
-0.026420
-0.079340
-0.181230
0.092630
0.155810
-0.056380
-0.082990
0.012350
-0.116190
-0.010050
0.019850
-0.067050
-0.061320
0.105510
-0.086070
-0.133510
0.127050
-0.028920
0.139410
-0.008770
-0.068770
-0.110210
-0.055040
0.055500
0.177570
-0.001090
0.065470
-0.005600
0.187600
0.044990
-0.066230
-0.048990
0.012850
0.044300
0.199020
0.122400
0.016000
-0.020810
-0.021620
-0.021180
-0.045600
-0.188410
0.165880
-0.040590
-0.184720
0.141340
0.000350
0.012240
0.040140
-0.176360
0.196940
-0.152640
-0.041120
-0.074190
0.028470
0.110600
-0.017800
0.174780
0.050890
-0.209430
0.038050
-0.118290
-0.067070
-0.157210
-0.134390
-0.001180
-0.008770
0.109400
-0.067460
-0.036860
0.088490
-0.089820
-0.010840
-0.036520
-0.033980
0.124730
-0.169040
0.260180
-0.279040
0.049630
0.121740
-0.079010
0.103670
-0.090470
-0.131340
-0.044650
-0.233360
0.139460
-0.175950
0.049550
-0.002990
-0.155710
-0.072620
-0.189590
-0.119410
0.085400
-0.089230
0.121190
-0.111930
0.001230
-0.000110
0.051310
0.037910
-0.077710
0.003720
0.132910
-0.029810
0.067600
-0.038040
-0.072440
0.056730
-0.053560
0.087790
0.123490
0.018730
-0.007130
-0.116570
-0.065410
-0.064720
-0.072340
0.112270
0.020760
-0.060850
0.215390
0.068900
-0.067290
-0.154120
0.055220
0.026520
0.085480
0.007410
0.056460
0.074700
0.099980
-0.132650
-0.043180
-0.120240
0.089700
0.153720
0.041340
-0.000270
0.120910
-0.010870
0.065430
-0.071810
-0.057040
-0.038810
-0.073210
0.141230
0.164110
-0.092900
-0.126830
-0.000940
-0.048900
0.129420
0.089460
0.088720
-0.017610
0.020020
0.161000
0.039040
-0.072720
-0.038230
0.044450
0.127660
-0.015750
-0.013810
0.044310
-0.010590
-0.038540
0.039960
0.124300
0.062110
-0.065450
-0.069730
0.079460
0.021780
-0.018590
-0.112210
-0.099810
-0.056520
0.122960
-0.092660
-0.081880
-0.031320
0.044300
-0.085210
-0.114730
-0.053460
0.113880
0.088330
0.088220
-0.027410
0.020910
-0.064800
-0.007050
-0.076330
0.050950
-0.151240
-0.033440
0.079940
-0.061170
-0.079640
0.031550
-0.045420
-0.155170
-0.105450
-0.055680
-0.197400
-0.081440
-0.029090
0.134570
-0.072450
0.047040
0.057010
-0.182390
-0.022300
-0.035320
-0.071990
0.077450
-0.019970
0.046740
0.055700
0.073260
0.052030
-0.086870
-0.006680
-0.060870
0.150290
0.008730
0.006430
-0.042710
0.040610
-0.032050
0.070940
0.098070
-0.032940
0.042940
0.185790
-0.087000
-0.049070
-0.206010
0.050710
-0.079340
0.042480
0.083570
0.198540
-0.040150
0.007420
-0.127570
0.123440
-0.151490
0.056230
-0.122280
0.103520
-0.028920
0.009170
0.043950
0.016800
0.007410
0.088800
-0.220270
-0.081080
-0.178640
-0.029280
-0.004240
-0.114980
0.134930
0.015060
0.080960
0.096470
0.022260
0.027340
-0.250560
0.050120
0.001350
-0.124460
0.081070
-0.126350
0.015040
0.124800
0.091460
0.124110
-0.272550
0.028630
-0.007880
-0.021620
0.110100
-0.100510
0.052960
-0.066180
0.009300
-0.012470
-0.024680
-0.010860
0.091890
-0.018300
0.021100
-0.191250
-0.081750
0.104650
-0.007000
0.118470
-0.002640
0.180410
-0.086200
-0.013900
-0.133620
0.056410
-0.080910
0.063830
0.039440
0.060810
0.139500
0.038550
-0.096680
-0.093080
0.051960
-0.034820
-0.048100
-0.077240
-0.012220
-0.039630
0.156880
-0.077290
0.069250
-0.076060
-0.111320
0.004860
0.004270
0.020670
0.030880
0.148870
0.114520
0.079540
-0.023700
-0.212680
-0.058180
0.203360
-0.067190
0.008380
-0.005960
0.100480
-0.074430
-0.102920
0.029450
0.004180
0.058140
0.157120
0.002260
-0.007360
-0.067330
-0.029690
-0.131980
-0.032040
0.013730
0.070080
0.148330
0.011410
0.060660
-0.145330
0.012610
0.067380
-0.172350
0.156480
0.101770
-0.126130
0.014310
0.066620
-0.016550
0.047840
-0.072330
-0.007850
-0.141000
-0.093480
-0.000350
-0.044470
-0.112300
0.024670
-0.036150
0.056090
-0.075330
-0.110710
0.040690
-0.020150
0.000540
-0.049910
-0.038110
0.072990
0.096660
-0.075780
0.064360
-0.088790
-0.034230
-0.097870
-0.074440
0.115960
-0.045750
0.062700
0.037870
0.037280
0.054540
-0.112330
-0.005530
0.072340
-0.061290
-0.099800
-0.082750
-0.023190
-0.034200
-0.023200
0.085680
-0.168870
-0.010470
-0.067100
-0.025820
0.124000
-0.116720
-0.027770
-0.005750
-0.177860
0.086390
0.128380
-0.126560
-0.066970
0.116780
0.149890
0.007560
0.184710
0.037890
0.004250
-0.064180
0.148120
0.034740
-0.059440
0.145090
0.066490
0.163280
-0.008610
-0.058730
0.063200
-0.107440
0.050920
-0.024750
0.070330
0.159670
-0.077050
0.000690
0.141010
-0.091130
0.024010
-0.344380
0.125880
0.076510
-0.129060
0.095230
-0.037330
0.053550
0.056910
-0.174520
0.191810
-0.343790
-0.053320
-0.182360
0.054570
-0.077430
-0.030220
-0.161130
-0.032070
-0.011740
-0.080950
-0.058000
-0.067510
-0.094620
0.039700
0.005930
-0.117560
0.068430
-0.085180
0.106170
-0.006870
0.167060
-0.007470
-0.077060
-0.054720
0.081820
-0.055540
-0.068840
-0.139290
0.047790
-0.014540
0.008350
-0.082690
0.041480
-0.045370
-0.076940
-0.011360
-0.070710
-0.044380
-0.099280
0.041520
0.080880
-0.053220
0.121600
0.120930
0.065980
-0.126520
-0.068460
0.028940
0.041750
0.047120
0.021770
-0.057490
0.060200
0.105250
-0.086890
-0.094040
0.010460
0.002490
-0.105150
-0.064420
-0.016750
0.152160
0.152260
-0.001380
-0.026840
-0.244750
-0.055040
-0.073790
-0.158190
0.073370
-0.159760
0.092790
0.072210
0.045390
0.062770
-0.084260
0.087460
0.025570
0.000200
-0.134590
0.104480
0.169460
0.073960
-0.019130
0.025220
-0.015070
0.051310
0.084990
0.186420
0.084150
0.064390
-0.058620
-0.160750
0.017090
-0.034500
-0.058720
0.107670
0.045140
0.044610
0.066380
-0.003140
-0.000260
0.023230
0.195110
-0.001900
-0.025420
0.046280
-0.076610
0.051250
0.018340
0.077790
0.016400
-0.086970
0.009650
-0.015010
-0.026450
0.086890
-0.061950
0.015660
-0.084510
0.006310
-0.080280
-0.019600
0.051950
-0.047240
0.033190
0.071870
0.087100
0.073310
-0.081110
0.042000
0.030170
-0.147090
0.023940
0.099900
-0.093270
-0.083900
0.070710
-0.063670
-0.063900
0.084140
-0.102990
-0.035480
-0.018310
-0.058950
0.011840
-0.080940
-0.154530
0.129060
-0.111380
0.106000
0.048530
-0.133100
-0.105000
0.046850
0.178240
-0.033970
-0.072890
-0.004140
-0.000810
0.117170
-0.038490
0.040380
-0.159010
-0.064970
0.044630
0.000420
0.007860
-0.055110
-0.188580
0.106650
0.182570
0.190850
-0.106620
0.050270
-0.007070
0.070810
0.025250
-0.084720
-0.061320
-0.040890
-0.012440
0.119760
0.023470
-0.067410
0.066610
0.085460
0.080970
-0.073320
0.074240
-0.267910
-0.075080
0.003960
0.005680
0.042290
-0.011930
0.058450
-0.028030
0.032780
0.109060
-0.161570
-0.027240
-0.108940
0.092820
-0.076990
0.026990
-0.062140
-0.054990
-0.029610
-0.019970
-0.176390
-0.112170
-0.021720
-0.025150
-0.074540
0.123260
-0.154950
-0.038010
0.074840
-0.000930
0.046630
-0.091420
0.031010
0.122230
-0.198400
0.009160
-0.167990
-0.163360
0.008690
0.006070
0.002460
0.039420
-0.074140
0.021210
-0.020210
0.165670
-0.122410
-0.106930
0.044780
0.045330
-0.054920
-0.098030
0.180700
0.064220
-0.177070
-0.082760
-0.019930
-0.078640
-0.178420
0.093130
-0.142250
0.096550
0.189900
-0.072100
0.044780
-0.151610
-0.148390
0.117030
-0.046510
0.075100
0.047640
0.118390
0.190400
-0.076650
0.073770
-0.096710
-0.019450
0.144160
0.019720
-0.098200
-0.159370
0.017280
0.049360
-0.003870
0.062560
0.002020
-0.073430
0.109330
0.038730
-0.065880
0.062470
-0.056620
0.054320
-0.013740
-0.035400
0.023380
-0.086490
0.087870
0.097320
-0.116900
-0.085180
0.023580
-0.100550
0.075580
-0.055780
0.078300
-0.024600
-0.125880
-0.017360
0.098270
-0.086210
0.098900
-0.133280
0.040860
0.125860
-0.084640
0.073450
-0.003090
0.068220
-0.089380
-0.028560
0.039240
-0.060400
-0.052320
0.097510
0.067840
0.033660
-0.142410
0.042340
-0.119160
0.064330
0.111270
0.033950
0.059040
0.021070
0.114900
-0.101820
0.093590
0.001500
-0.048390
0.096230
-0.122770
-0.097720
-0.003110
0.094860
0.061670
0.070460
-0.047260
-0.089690
-0.131200
0.029060
-0.012910
0.036740
0.065770
0.046060
0.095730
-0.032640
-0.009990
0.091230
-0.101830
0.121020
0.109800
-0.060700
-0.117660
0.106740
-0.029890
0.103610
0.044600
0.049870
-0.087460
0.074140
-0.033190
0.064570
-0.163280
0.013120
0.041260
0.105980
0.078510
-0.030020
-0.151540
0.057710
-0.011070
0.075040
-0.192570
-0.004630
0.105830
0.190170
0.111320
-0.006370
-0.075310
-0.060020
0.015830
0.136430
-0.146650
-0.022140
0.035800
0.230760
0.198250
0.028370
0.092470
-0.149910
0.020450
0.038660
-0.027660
0.033950
0.055320
0.045850
0.108950
0.032560
-0.065730
-0.169220
-0.076530
-0.093490
-0.028590
0.002820
0.002950
-0.173650
0.094590
-0.067340
0.067960
0.033730
0.024370
0.112320
0.114680
-0.263310
0.080550
-0.086890
-0.091720
-0.038740
-0.035000
0.022570
0.035590
-0.023050
-0.074650
-0.225190
-0.010630
-0.235710
0.010640
0.017240
0.023520
0.024230
-0.100100
0.059660
0.109410
-0.077080
0.023150
-0.015220
0.065460
-0.043210
-0.057820
-0.054260
-0.054800
0.014300
-0.039370
-0.115230
0.074370
-0.117280
0.054730
-0.168910
-0.058900
-0.130630
0.001040
0.116880
0.032570
0.103230
-0.129660
-0.058020
0.012540
-0.105350
0.000230
0.076260
-0.004080
0.056810
0.027810
0.074670
-0.076620
-0.004790
-0.018390
-0.098630
0.016590
-0.002380
0.030610
0.059270
-0.044960
-0.034940
0.123450
-0.126690
0.044180
0.132750
-0.114570
-0.018550
-0.001820
0.083310
-0.006930
0.080350
-0.018180
-0.061130
0.100920
0.076860
0.054870
-0.001140
0.022960
0.009610
0.057220
-0.043730
-0.040730
-0.018070
0.081930
0.051650
0.024890
0.117970
0.113930
-0.065410
0.077240
-0.006720
0.046910
-0.107210
0.011130
-0.038210
-0.081630
-0.056730
0.102960
0.038690
0.056540
0.122910
0.062910
-0.077920
-0.019260
-0.001060
-0.016940
0.103560
0.028640
-0.050710
0.113100
0.025870
0.053970
0.034040
0.066450
0.070160
-0.054350
-0.055240
0.014960
-0.109500
0.039070
0.057530
-0.076890
-0.032830
-0.088590
-0.044370
0.031990
0.078800
-0.035830
-0.004650
-0.079980
-0.061320
-0.072200
-0.063850
0.060780
-0.096960
-0.115690
0.017410
-0.103760
-0.108840
0.101960
0.023750
0.130540
0.103830
-0.100270
-0.110040
-0.139600
0.202900
0.000090
-0.005430
-0.073350
-0.034080
0.035080
0.067870
-0.000670
-0.006680
-0.096000
0.188790
0.148830
0.069220
0.032180
0.137600
0.166590
0.156150
0.131000
-0.120370
-0.002530
0.177650
-0.026440
0.062820
-0.117960
-0.029370
0.129850
0.104370
0.134750
-0.036900
0.081980
-0.047950
0.076040
0.106770
-0.068620
0.052450
0.103150
0.096000
0.098370
0.112890
0.059100
0.067560
-0.061360
0.070130
0.129270
-0.103540
0.012480
0.086440
0.049020
-0.107190
0.102130
-0.114880
0.073390
0.000940
0.104820
0.006970
0.018300
-0.158960
-0.006680
0.029370
0.012240
0.025690
-0.001770
0.011360
-0.097990
-0.200710
0.143140
-0.119920
-0.131970
0.051300
-0.049720
0.041200
0.035800
-0.075550
0.073730
0.029330
0.116050
0.035520
0.076420
0.056500
0.081350
-0.027740
0.083910
-0.041560
0.056770
-0.053300
-0.001240
0.032320
-0.085360
-0.080830
-0.157290
-0.025010
0.032890
-0.070960
-0.117150
0.114830
0.078530
0.010860
-0.090720
-0.142450
0.042680
-0.087710
0.103360
0.098820
-0.120320
0.120910
-0.026710
-0.121160
0.081380
-0.084040
-0.044280
0.075510
0.109320
0.082970
-0.060910
0.130150
0.043440
0.008120
0.029860
-0.092170
0.009140
0.123730
0.100670
-0.052230
-0.049890
-0.080920
0.069060
-0.070880
-0.121890
0.069100
0.020400
0.013190
0.065890
0.058490
0.121490
-0.021990
-0.056260
-0.099890
-0.038570
0.092880
0.030910
-0.039800
-0.032040
-0.113120
-0.033780
-0.057950
-0.028920
-0.081770
-0.038230
-0.086250
-0.071450
-0.010260
-0.014890
-0.097390
-0.084740
0.037640
0.016090
-0.074350
-0.019690
0.025980
0.002300
0.097530
-0.101940
0.075050
-0.084430
0.057830
0.133440
-0.024130
-0.032330
0.036560
0.095920
-0.062380
0.105030
-0.036160
0.066310
-0.048110
-0.069930
-0.070010
0.137340
-0.107640
0.076990
-0.054400
0.044770
0.040530
-0.087970
-0.016290
-0.053670
-0.090470
0.012090
-0.044390
-0.108250
-0.096950
-0.020290
0.037910
0.085150
-0.020030
0.059900
-0.030360
-0.086430
0.050690
-0.035690
0.129290
0.030410
-0.040880
-0.052320
-0.079300
0.034240
0.039290
0.010750
0.111240
0.046950
-0.028700
0.032270
0.095080
0.044820
0.005940
0.128180
0.097230
-0.084360
0.099450
-0.136140
-0.033220
0.048580
-0.001940
0.031580
0.022330
0.131910
0.025000
-0.035920
0.093530
-0.095800
-0.034180
0.022010
0.039240
-0.042380
0.011960
-0.033080
0.030860
-0.037060
-0.002410
-0.030520
0.112490
0.098490
0.060250
-0.088680
0.083870
-0.033630
-0.005840
-0.104490
-0.007830
-0.065110
0.034160
-0.056360
0.022500
0.083760
0.066880
0.025640
0.018510
-0.063170
-0.100850
-0.131410
0.040110
-0.022730
-0.122600
0.012740
-0.056100
-0.106640
0.009890
-0.015670
-0.018540
0.061800
-0.099390
0.057920
-0.025920
-0.013450
0.051530
0.111880
0.081300
0.102420
-0.006740
0.017450
0.049400
-0.058510
0.019830
0.015560
-0.054230
-0.029000
-0.006880
0.030230
0.010820
0.077650
0.008420
-0.099870
-0.048590
0.002840
-0.045340
-0.051740
-0.005410
-0.002690
-0.052670
-0.008250
-0.092410
-0.055840
-0.038270
0.015090
-0.015510
0.015110
-0.044180
-0.106800
0.099440
-0.056190
0.039260
0.017960
-0.007590
0.025560
0.061830
0.066230
-0.046310
-0.090710
-0.102440
-0.052720
0.105700
0.086290
0.039780
0.011000
0.053900
0.051120
0.051070
-0.105910
-0.070240
0.025310
-0.037670
0.027320
0.083870
-0.060520
0.084870
0.109240
-0.009580
-0.043440
-0.083880
0.079010
0.067110
0.046670
-0.018710
-0.045860
-0.116720
-0.080930
-0.009440
0.127720
0.021950
-0.023000
0.080310
-0.056130
0.114370
-0.055390
0.029320
0.065540
-0.104580
0.102810
0.113820
0.045820
0.000000
0.000000
0.000000
0.000000
0.000000
0.000000
0.000000
0.000000
0.000000
0.000000
-0.021410
0.053350
0.083190
0.000880
-0.078660
0.013540
-0.113810
0.082780
0.002530
-0.078240
-0.031590
0.110920
0.053330
0.064140
-0.094720
-0.070500
0.085390
0.075300
-0.021730
0.057640
0.056750
-0.078060
-0.139350
-0.112000
-0.098900
0.091510
-0.101970
-0.055270
0.062390
-0.041860
0.003480
-0.072160
-0.004520
-0.016100
0.048450
-0.083870
0.087160
-0.039010
0.078330
-0.030380
0.081470
-0.016120
-0.001460
-0.128360
0.019610
-0.052490
0.031150
-0.002770
-0.066120
0.070670
-0.093230
-0.055910
-0.016290
0.016060
-0.095870
-0.070870
-0.109320
-0.012950
-0.042810
-0.070440
0.049670
0.060990
0.078760
-0.003490
0.092570
-0.086890
0.036290
0.040840
-0.022890
0.029080
-0.110290
0.015160
-0.067980
-0.096150
0.040560
0.024440
-0.088680
-0.043520
0.007830
-0.029140
0.041690
-0.083340
0.078730
0.086720
-0.052750
0.011250
-0.009600
-0.122130
-0.013460
-0.040400
-0.096430
0.096530
0.015370
0.011540
0.079190
-0.107100
0.093680
-0.112320
-0.070800
-0.009480
-0.096820
-0.052770
0.071850
0.014730
0.102740
0.008270
0.066220
-0.075470
-0.091480
0.022390
-0.113110
-0.050910
-0.122160
-0.040010
0.106500
0.009870
-0.071870
-0.051020
-0.010150
0.059920
-0.055740
0.021080
0.088990
-0.113950
-0.009950
0.018290
0.073790
-0.100760
-0.070980
0.091010
0.079980
-0.085490
0.083200
-0.104540
-0.031940
0.057450
-0.120960
0.080500
0.107160
-0.025050
-0.062280
0.019810
0.078160
0.033780
-0.113050
0.130310
-0.059660
-0.080700
-0.021550
-0.069630
-0.064860
-0.031000
-0.097310
0.067000
0.021360
-0.041130
0.081830
0.085310
-0.011710
-0.118060
0.041320
0.078740
0.084060
0.028860
-0.017080
-0.118800
0.101040
0.000240
-0.034240
0.012110
0.088470
-0.007370
0.080010
0.099640
-0.098310
-0.074090
0.018090
0.092700
-0.022950
-0.060810
0.000000
0.000000
0.000000
0.000000
0.000000
0.000000
0.000000
0.000000
0.000000
0.000000
