0.000000
0.011180
-0.148090
0.205150
0.161480
-0.012290
0.110710
-0.287220
-0.157140
0.159190
0.133210
-0.068880
0.101030
-0.126490
0.073660
0.171150
-0.161530
0.249500
-0.035540
0.000000
0.001740
-0.173780
-0.026210
-0.219980
-0.168250
-0.130610
-0.195100
-0.020410
0.157970
-0.151030
0.180310
-0.044010
-0.310380
-0.250100
0.132630
0.047120
-0.010010
-0.065650
0.179890
0.162150
-0.085580
-0.046310
0.022030
0.048030
-0.193800
-0.011410
0.155640
-0.199410
0.098930
0.002180
0.076920
0.101230
0.156270
0.070840
-0.137490
0.176410
0.081290
-0.197900
0.066650
0.014410
-0.223840
-0.259980
-0.063300
0.082180
-0.028380
-0.080760
0.118420
0.099050
0.105860
-0.280840
0.048650
-0.072160
-0.218930
0.012500
0.083290
0.043940
0.011780
-0.002310
-0.234730
-0.230270
0.011860
0.094820
0.036980
-0.141720
-0.304930
-0.036030
0.022700
0.143240
-0.149620
-0.053420
-0.192220
-0.253250
-0.265680
0.199710
-0.222730
0.031840
-0.115840
0.149430
-0.047280
-0.295390
0.145100
-0.067370
-0.297870
-0.127370
-0.006720
0.120120
-0.179540
-0.197910
0.116250
-0.196170
0.060760
-0.198550
-0.130860
0.073150
-0.001900
0.020430
0.062820
0.108120
-0.009400
-0.108190
-0.129840
0.106150
-0.080160
0.115930
0.028230
-0.078590
0.026040
0.176810
0.191690
0.067970
-0.159660
0.086100
-0.192970
0.204030
0.010920
0.071160
0.071730
-0.201190
0.107280
0.054780
-0.141920
-0.055100
-0.209800
-0.271050
-0.222690
-0.012340
0.188690
-0.201510
-0.036400
0.025900
-0.029200
-0.148900
0.151940
0.024580
-0.198090
-0.028070
-0.211420
-0.005980
-0.030740
-0.081170
-0.296830
-0.130600
0.199000
0.074140
-0.139250
0.208120
-0.165440
0.084080
0.062990
-0.131270
0.024690
0.173490
-0.103910
0.021140
-0.174440
-0.248480
-0.003110
-0.041140
-0.105400
-0.036610
-0.146670
-0.052940
-0.039040
-0.048350
-0.273370
0.133460
-0.089010
0.058630
0.126860
0.057850
-0.246020
-0.207810
-0.148680
-0.242130
0.138300
0.040500
-0.279790
0.072070
-0.106960
0.019440
-0.058790
0.119170
-0.072740
0.066120
-0.122210
0.008960
0.118100
-0.029630
0.000270
-0.007140
0.055260
-0.252130
-0.016410
-0.091830
-0.057650
-0.251250
0.014730
0.062240
-0.007510
-0.158340
-0.106830
-0.176060
0.192650
0.112930
0.080210
0.193730
0.043470
-0.058900
-0.178240
-0.236410
-0.273000
-0.001480
0.260100
-0.200250
0.194260
0.168100
-0.242270
-0.064930
0.135460
-0.049990
-0.003330
-0.056780
-0.066390
-0.043240
-0.022920
-0.118690
-0.089000
-0.141120
0.093160
-0.157300
-0.166860
-0.189390
0.248320
0.152590
0.060990
-0.283370
-0.012250
-0.238820
-0.200380
-0.154070
0.071700
0.167250
-0.291710
0.164250
-0.088780
-0.001080
-0.054380
0.128290
-0.202420
0.077050
0.012400
-0.176300
0.031990
0.071130
-0.099080
-0.236880
-0.191980
-0.120890
0.075820
-0.106180
-0.184120
-0.232690
0.116880
-0.182110
-0.150090
0.173390
0.087400
-0.102160
-0.063220
0.006390
-0.144000
-0.145220
0.040980
0.189630
0.135590
0.007900
0.113710
-0.216250
0.173960
0.168870
-0.165630
-0.001180
0.066530
-0.277100
-0.038710
0.135690
0.126290
-0.285110
-0.225210
-0.144240
0.201030
0.062720
0.104850
-0.196270
-0.109750
0.074020
-0.127680
-0.159210
-0.280350
-0.114370
0.072690
-0.100270
-0.068620
0.088750
-0.059200
-0.088340
0.026520
-0.237750
0.167990
0.122830
-0.225480
0.107580
-0.115890
-0.171930
-0.069290
-0.165160
-0.308580
-0.282610
-0.033440
0.175700
-0.262380
0.109550
0.037070
-0.167020
-0.281950
-0.137010
-0.304100
-0.300080
-0.212540
0.006320
-0.081070
-0.033650
0.186390
-0.178540
-0.259020
0.155820
0.143390
-0.185550
0.105370
0.044810
-0.074780
-0.019180
-0.100500
-0.129140
0.025970
-0.147850
-0.117770
0.104200
0.172370
-0.004710
-0.136200
-0.112850
0.164420
-0.256120
0.025780
-0.233290
-0.248530
-0.135970
0.131150
-0.011940
0.000000
-0.217670
0.253910
0.089710
-0.042100
-0.085150
0.306600
0.216890
-0.141390
-0.121230
0.025360
-0.011710
-0.123250
0.163420
-0.050690
-0.076840
0.147710
-0.154530
0.000000
0.000000
0.000000
-0.140100
0.104510
-0.057110
-0.178490
-0.134420
0.175010
-0.124860
0.263360
-0.001580
0.123450
0.084100
-0.060470
0.133220
-0.089040
0.031330
0.034300
0.169320
-0.181300
0.000000
-0.121100
-0.156970
-0.030250
-0.020740
0.145140
0.144690
0.259280
-0.052850
-0.098150
0.065610
0.230470
-0.075390
0.245650
0.258700
0.259080
0.121410
-0.020850
0.115410
-0.292260
0.192980
0.086750
0.179660
0.168490
-0.088840
0.199540
0.021490
-0.098890
0.051060
0.066610
0.236150
-0.143860
0.177550
0.093650
-0.114560
-0.068900
-0.080040
0.191000
-0.169630
-0.029780
-0.118620
-0.010510
0.024030
0.303010
0.253420
-0.029500
0.186650
0.100380
0.149410
0.183220
0.000160
-0.123920
-0.176020
-0.171640
0.041240
0.241980
0.054920
0.224250
0.154910
-0.054690
0.138380
-0.012340
-0.053980
-0.021380
-0.127870
0.157590
0.147620
-0.039610
0.128490
0.228850
-0.063400
0.149650
0.232870
0.116580
-0.188240
0.197190
0.098910
0.050010
0.221820
-0.120210
-0.127290
0.295020
-0.047080
0.145770
0.206160
-0.021590
0.134960
-0.016610
-0.099390
0.235480
0.196280
0.169720
-0.178110
0.029040
0.128160
0.175120
-0.192010
0.099440
0.134100
0.008640
-0.204610
0.300220
0.195700
0.292140
-0.151580
-0.042450
-0.000590
0.139810
0.099740
-0.077940
0.022320
-0.027970
-0.070160
-0.042540
-0.028230
0.035460
-0.050000
-0.000830
0.174560
0.089710
0.054970
0.000220
-0.172590
0.159220
0.190370
0.005020
0.208020
-0.168520
-0.103740
-0.181910
0.128460
-0.116760
-0.189700
0.100990
0.122560
-0.139810
0.189050
-0.119610
0.134410
0.210780
-0.048670
-0.151780
-0.029450
-0.106380
0.136130
0.110120
-0.089310
0.185370
-0.096760
0.065130
-0.162790
0.110710
-0.135160
0.197770
-0.117130
0.190510
0.098880
0.117030
0.070660
0.085880
0.237750
0.209050
-0.137130
0.071850
0.117640
-0.077960
-0.137550
0.200440
0.244120
0.087760
-0.151720
-0.094780
-0.115020
-0.146340
0.171530
0.240950
-0.175410
0.074470
-0.095780
-0.094640
0.089930
-0.180460
0.069490
-0.079960
0.202160
0.173960
-0.046510
-0.043970
-0.194600
0.088460
-0.177300
-0.212360
0.253230
0.023630
0.133950
-0.082550
-0.085190
0.159810
0.113910
0.270570
-0.132330
0.065030
0.190560
-0.018070
0.146140
-0.189550
-0.119540
-0.141770
0.043050
0.008860
0.084300
-0.038460
-0.036590
-0.082040
-0.206690
-0.133280
-0.122680
0.138370
0.002860
0.092900
0.250040
-0.095940
0.158900
-0.141200
-0.017290
0.132150
-0.233150
0.162940
-0.227600
-0.003060
-0.175160
-0.151720
0.136190
-0.210550
-0.016740
-0.145740
0.101460
0.035710
-0.033330
-0.107980
-0.081120
-0.023320
0.060010
0.221810
-0.158640
-0.005120
0.235340
0.231890
0.143830
-0.009170
0.008330
-0.159030
0.166290
-0.038730
0.137090
0.218390
0.226680
-0.094480
-0.134130
0.246940
-0.199940
-0.193670
0.290930
-0.104120
-0.028320
-0.213190
0.102900
0.003000
-0.146400
-0.132810
0.253430
0.243950
-0.132560
0.209850
0.175310
-0.177860
-0.124880
-0.182040
-0.147090
-0.035410
0.155090
-0.084370
0.044350
-0.055680
0.207300
-0.152940
-0.192190
0.239260
0.019440
-0.066010
0.160320
-0.066030
-0.086420
0.076410
-0.037660
-0.098380
-0.161010
0.162630
0.128810
0.059060
0.187180
0.078880
0.200740
0.248000
0.263210
0.006240
-0.050470
-0.069070
0.279790
-0.052720
0.144290
0.156870
0.036550
-0.094260
-0.063070
0.238510
0.112170
0.012400
0.043900
0.107900
0.168710
0.203980
-0.138040
-0.193420
0.094120
-0.011770
-0.012240
0.113590
0.062460
-0.154730
0.002460
0.287010
-0.032350
0.062850
0.273790
-0.053620
-0.108560
0.005200
-0.013350
0.032030
-0.054490
0.105220
-0.249140
-0.115960
0.237140
-0.059600
-0.014620
0.001610
-0.114380
-0.136400
-0.059540
0.232690
0.074370
0.286310
0.198690
0.156190
0.183630
0.025390
-0.143800
0.102970
0.218960
0.000000
0.166150
0.231060
-0.178240
-0.208240
0.133570
-0.160330
0.087960
-0.269840
-0.195850
0.167430
-0.086700
0.179860
-0.148800
0.051530
0.164170
-0.038660
0.190090
0.000000
0.000000
0.000000
-0.069540
0.223560
0.029140
-0.058080
0.141900
0.120670
0.180310
0.026780
-0.181400
0.023740
0.013870
-0.123120
0.147280
0.135290
0.266960
-0.123400
0.091380
0.134640
0.000000
-0.235810
-0.076700
0.115650
0.005820
0.090040
0.095870
-0.155410
0.228320
0.182830
0.190840
-0.176740
-0.099910
-0.165920
-0.020580
-0.159110
-0.020940
-0.029290
-0.101350
0.057870
0.142340
0.046660
-0.121330
-0.078300
-0.052400
-0.154340
-0.171470
0.238950
0.085970
0.002070
0.273070
0.039140
0.169080
-0.031040
-0.048050
-0.167890
-0.170340
0.193670
-0.123560
-0.070490
-0.014190
0.215190
0.086900
0.066760
-0.230950
0.043160
-0.090080
0.101230
0.161910
0.075650
0.336240
0.089770
0.045950
0.116490
-0.062440
0.080150
0.189040
0.010360
-0.054680
0.091850
0.035200
-0.147260
0.099010
0.120990
0.131230
-0.263750
-0.216700
-0.185650
0.010380
0.203120
0.067590
0.101040
0.269710
0.052730
-0.065480
-0.243280
0.121070
-0.105840
0.194160
-0.170810
-0.045300
-0.169250
-0.126950
0.209180
0.209430
0.008480
-0.096040
0.105650
-0.082480
0.088050
0.024450
0.308450
-0.222150
-0.051910
-0.170060
-0.043100
-0.066660
0.028260
0.219000
-0.099330
-0.117190
0.146480
-0.018610
-0.152500
-0.120410
0.187330
-0.152600
0.028980
-0.179810
0.047030
0.163210
0.010260
-0.233270
0.013840
-0.439480
-0.287050
-0.139150
0.354780
0.169980
-0.086020
-0.182060
0.253730
0.088010
0.184510
-0.214980
0.270840
0.124350
-0.133210
0.127190
-0.010170
-0.079210
0.060740
-0.155720
-0.375650
-0.480510
-0.165560
-0.174460
0.329860
0.322650
-0.119070
-0.089380
-0.108910
0.181850
-0.276380
-0.134090
-0.191750
0.125890
0.173320
0.133960
0.087650
0.133740
0.025890
0.063970
-0.355590
-0.019710
-0.061190
-0.022560
-0.179890
0.221920
0.254380
-0.046880
-0.115230
-0.208760
-0.091060
0.100720
0.141890
0.278520
-0.150050
0.031260
-0.027230
0.058290
-0.267500
-0.142090
0.070030
-0.053710
-0.241360
-0.286640
0.207440
-0.065270
-0.076450
-0.081970
0.155870
0.075870
-0.179440
-0.294760
0.100890
0.016120
0.037520
-0.046450
-0.133020
-0.136200
-0.167720
0.126200
0.081890
0.096720
-0.149750
0.013720
-0.053950
0.218700
0.180310
0.112720
-0.113660
-0.249660
-0.008440
0.092420
-0.086020
0.064720
0.333420
0.448940
0.351170
0.121300
-0.102110
0.056610
-0.076620
-0.014770
-0.290900
-0.159930
-0.012960
0.097050
0.251020
-0.146290
0.262500
0.175960
-0.258620
-0.207850
-0.077970
-0.020720
0.220110
0.174130
0.272970
-0.107010
0.090410
0.132100
-0.160970
-0.073390
-0.246930
0.135330
-0.026130
0.071130
0.190040
0.008350
-0.063820
0.132140
-0.102700
-0.119140
-0.045990
-0.170180
0.157270
0.385410
0.317440
0.250380
0.052520
0.097170
0.062600
-0.266770
0.040650
-0.252220
-0.165830
-0.161310
0.260830
-0.036690
-0.158280
-0.211370
0.127250
-0.161630
0.007390
-0.358790
-0.170150
0.120940
0.293440
0.138560
0.110940
-0.003870
0.108990
0.050430
-0.154190
-0.004750
0.252140
-0.070230
0.054620
-0.165880
0.083440
-0.101620
0.158810
-0.025020
-0.207720
-0.266960
-0.043460
-0.087620
0.400670
0.097800
-0.013820
-0.042820
-0.163920
-0.166480
-0.175790
-0.181830
0.128120
0.212620
-0.049040
-0.140510
0.275130
-0.177060
0.043480
0.053680
-0.125260
0.060610
0.200720
-0.149790
-0.082290
0.256840
-0.009640
0.141810
0.221410
-0.084630
-0.222620
0.165530
-0.086940
-0.089560
0.013500
0.089320
-0.009630
-0.101120
0.127690
-0.193350
-0.120390
-0.141120
0.087640
0.224300
-0.161530
0.225670
0.079400
0.011340
-0.121480
-0.211940
0.117870
0.147900
-0.176340
-0.020440
0.172490
0.086080
0.159420
-0.201180
0.127450
-0.090480
-0.186660
0.204600
0.151280
-0.109800
-0.176750
0.012780
0.132880
-0.117290
0.217210
0.043930
0.250620
0.038310
0.230580
-0.162510
0.072950
0.226240
0.000000
-0.107950
-0.165210
0.136960
-0.204170
0.110850
0.127010
0.102770
-0.063170
-0.047710
-0.123430
-0.009240
-0.132950
0.093080
0.285610
0.050140
0.143330
0.164930
0.000000
0.000000
0.000000
0.254180
0.074170
0.211170
-0.116840
-0.128280
0.139840
-0.164570
0.016160
-0.017580
-0.172310
-0.219070
-0.007440
-0.264870
-0.241480
0.059480
-0.152400
0.155160
0.135110
0.000000
-0.037490
-0.122480
0.228820
0.106670
-0.076020
-0.204910
0.098060
-0.013160
0.037380
-0.034240
-0.263710
0.155830
0.087400
0.075880
0.102640
-0.256620
-0.224940
0.043210
0.024990
0.050270
0.089120
0.091670
-0.281930
-0.098310
0.005500
0.008390
0.198670
0.142130
0.137960
-0.092500
-0.174010
-0.194620
-0.004220
0.198600
0.146200
-0.140540
0.037880
-0.053290
-0.075860
0.034470
0.097140
-0.179380
0.155360
0.042080
0.165910
-0.020200
0.204300
-0.006410
0.094960
0.136760
0.100400
-0.281800
-0.212200
-0.161550
-0.002860
-0.192230
-0.194400
0.022870
-0.272930
0.069340
-0.147660
-0.214740
-0.076260
-0.279640
-0.113370
0.060060
0.070230
-0.171140
0.159680
-0.146530
0.055390
0.164880
0.073440
-0.090650
-0.239390
-0.218440
0.103860
0.179430
0.183030
0.163700
0.171470
-0.132930
-0.039910
0.154370
0.188670
0.134460
0.101080
-0.103850
-0.266240
-0.018440
0.192450
-0.034530
-0.168070
-0.153040
0.190660
0.182020
0.169710
-0.266330
-0.248290
0.142290
-0.224840
-0.178800
0.022140
0.067660
0.208520
0.074330
-0.224490
0.201230
0.176270
-0.201710
-0.034740
-0.198590
0.149030
0.248770
-0.120270
-0.002380
0.160100
0.102900
-0.054760
-0.176080
-0.134040
-0.064870
-0.090940
-0.143940
0.148470
-0.298010
-0.025460
0.195250
-0.091930
0.123950
-0.041100
0.213640
0.169640
-0.078710
0.077280
-0.180930
0.203360
-0.142090
0.137930
-0.079830
0.046540
0.136970
-0.200290
-0.067650
-0.188050
0.198550
0.257230
0.078110
0.162850
0.115910
-0.015030
0.115520
0.099280
0.066860
-0.097440
-0.016220
-0.063550
-0.099350
-0.204770
0.086640
-0.133590
-0.059230
-0.126640
-0.037800
0.039850
-0.207730
-0.038070
0.054660
-0.185030
-0.105890
0.016080
-0.045960
-0.255260
-0.085200
0.226860
-0.093600
0.050420
-0.263570
0.185890
0.042290
-0.118710
0.081550
0.052540
0.009650
-0.084990
-0.149960
0.032720
0.139260
0.105910
0.163330
-0.090330
0.055110
0.118030
-0.052850
0.083460
0.050300
-0.253430
0.024420
-0.174840
-0.095010
-0.077100
-0.095200
0.057830
-0.212480
0.035320
-0.156510
-0.052730
-0.263990
-0.220740
-0.016850
-0.250710
-0.216470
0.160090
0.109890
0.174970
-0.007010
-0.195710
-0.171870
0.105310
-0.065970
0.012900
0.012170
-0.005840
-0.047920
-0.168070
-0.085790
0.006690
-0.066900
0.088550
0.042940
-0.090040
-0.220030
0.123620
-0.118010
-0.003150
-0.148670
-0.112760
0.143280
0.022530
0.040710
0.041320
-0.118000
0.045780
-0.061420
-0.143380
-0.094580
-0.205720
-0.190680
0.192600
-0.239490
-0.183590
0.037490
-0.143460
-0.063180
-0.068440
0.109500
-0.250610
-0.266290
0.033790
-0.276660
0.076730
0.153240
0.069900
0.005050
0.159750
-0.232670
0.213930
-0.109370
0.141940
0.191060
0.026390
-0.012370
0.209150
0.020470
0.058190
-0.210580
-0.152670
0.158170
-0.087740
0.053480
-0.073550
-0.139010
-0.109550
-0.065520
-0.198820
-0.067260
0.192810
-0.203910
-0.281850
0.132660
0.130650
0.078410
0.031490
0.058820
0.135030
0.134160
0.099390
-0.112150
0.003490
-0.194390
-0.118270
-0.081830
0.112650
0.116130
-0.001220
0.059860
-0.189110
0.074940
-0.187900
0.124890
0.050190
0.049370
-0.079360
-0.008310
0.000560
-0.278330
-0.265490
-0.053800
-0.007510
0.243720
-0.200350
-0.172960
-0.280680
0.179830
-0.212140
0.005940
-0.269780
-0.120990
-0.079890
-0.073780
0.045270
-0.110560
-0.191100
-0.121120
-0.078860
0.074950
-0.057690
0.175150
0.072130
-0.118700
-0.175720
0.041930
-0.163410
-0.126850
0.198110
-0.193670
-0.100820
0.009630
-0.241190
-0.234880
-0.063170
0.007560
0.149800
0.015490
0.185060
-0.080610
-0.103040
-0.034000
0.014370
-0.261670
0.000000
0.004570
0.009400
0.270340
-0.068730
0.219220
0.160050
-0.030610
-0.059200
0.165450
-0.264770
-0.054490
0.186130
0.089190
-0.035590
0.166490
0.274310
-0.150530
0.000000
0.000000
0.000000
-0.245300
0.027000
0.087060
0.029520
0.226110
0.051420
-0.050930
-0.065390
-0.177110
-0.197620
-0.129160
0.140440
-0.128170
-0.104600
0.166340
0.034670
0.084230
0.071690
0.000000
-0.030030
-0.095090
-0.019300
-0.011330
0.220070
-0.159950
0.169480
-0.028120
0.006130
0.180880
-0.174830
-0.210000
-0.069800
-0.121930
-0.045520
0.109790
-0.113340
0.012580
-0.199290
-0.200190
-0.194810
0.146770
-0.164450
0.194100
-0.060540
-0.014040
0.081110
-0.037630
-0.169430
0.189350
-0.190260
0.197150
-0.124090
-0.175270
-0.169250
0.119280
0.270040
0.054270
-0.020190
-0.006180
0.129860
0.146490
0.030400
0.058510
0.025310
-0.159820
0.204510
-0.195720
-0.197000
0.091940
-0.173350
0.141370
-0.204750
0.101820
0.065620
0.080140
-0.120690
0.121920
0.195840
-0.215770
-0.122980
-0.013500
-0.019730
0.103550
0.177510
-0.179690
-0.128050
-0.176450
0.126910
0.021800
-0.086280
-0.022460
-0.127090
-0.212800
-0.055790
-0.088800
-0.071500
-0.039360
-0.001660
-0.087860
-0.186810
0.010740
-0.017290
0.038470
-0.109340
0.044800
-0.212860
-0.023520
0.136230
-0.160640
-0.062760
-0.218440
-0.038270
-0.251930
-0.081870
0.198530
0.200870
0.067660
-0.129850
-0.177550
-0.028160
0.259740
0.194180
-0.157650
0.208920
0.177280
-0.075450
-0.156540
0.188250
0.031580
-0.000490
-0.088860
0.033930
-0.126260
0.043400
0.161830
-0.083230
-0.095640
-0.043610
0.048160
0.203020
0.093060
-0.193470
-0.136670
0.130240
0.086380
-0.087370
-0.113910
-0.037050
-0.023590
0.107580
0.210530
0.099540
0.009200
-0.080500
0.205740
-0.025500
0.169360
0.011800
0.251810
0.172390
-0.055890
0.224080
-0.096810
-0.088240
-0.010580
-0.232570
-0.238590
0.101830
-0.188140
0.048250
0.222960
0.197700
-0.003050
0.120260
0.047180
-0.123790
0.039900
0.230800
-0.062810
-0.176260
0.148820
0.152640
-0.044000
0.013730
0.181160
0.186680
0.047080
-0.072640
-0.065000
0.193550
-0.039560
-0.168860
0.250550
0.273240
-0.052010
0.135310
0.208100
-0.070540
0.243230
-0.158600
-0.165390
0.154710
0.080860
-0.136600
0.069750
-0.276200
-0.330460
-0.117240
-0.137040
0.038200
-0.086150
-0.186110
0.134090
-0.051420
0.057500
0.081290
0.230380
-0.047990
0.064250
-0.145350
0.022340
0.053250
0.261680
-0.179020
-0.154930
0.113070
0.084220
-0.231890
-0.167290
0.343730
0.155490
0.160130
-0.036940
0.092330
0.207680
0.199270
-0.095660
-0.114590
-0.201640
0.063920
0.212190
0.188760
-0.027330
-0.199900
-0.227430
-0.091710
-0.068550
0.154970
-0.139430
-0.012210
0.181960
0.269090
0.101890
-0.130050
0.095150
-0.177180
-0.202830
0.220910
0.215750
0.229970
0.151810
0.179370
0.206830
-0.170260
-0.049150
0.088160
-0.176620
0.006540
0.177400
0.229480
0.004100
0.052660
-0.129940
-0.213620
0.168640
-0.010610
0.079300
0.061660
-0.105520
-0.205490
0.006430
-0.142370
-0.147120
0.101920
0.051990
0.148600
0.085060
-0.286280
0.131530
-0.199600
0.210560
0.115390
-0.155950
0.088550
-0.123800
-0.087370
-0.114220
0.252430
-0.062340
-0.205950
-0.191140
0.163750
0.066200
-0.054390
0.012750
-0.263220
0.031490
-0.099180
0.031170
-0.066800
-0.060440
-0.040130
-0.129920
-0.223340
-0.214080
-0.036690
0.157080
-0.161080
-0.106040
0.087170
-0.028330
0.230950
0.192750
0.004540
0.032670
-0.122170
0.142800
0.223960
0.153150
0.178760
0.203130
-0.080230
0.210900
-0.024600
0.075750
0.008300
-0.073860
0.169070
0.006170
0.054440
0.024540
0.240310
-0.109970
-0.081010
-0.140150
0.248130
-0.155420
-0.117060
0.232930
-0.026970
-0.073460
0.089020
-0.071160
0.230560
0.149830
0.153300
-0.195160
-0.062540
-0.238890
-0.242000
-0.038600
0.173700
-0.162430
-0.046690
-0.066440
-0.127640
-0.047610
0.192140
-0.068450
-0.045150
0.223600
0.242420
-0.168410
-0.121040
-0.147840
-0.093590
-0.173770
0.077500
0.196630
0.000000
0.144540
0.070130
0.125900
-0.142440
0.012590
-0.263890
0.065100
-0.214660
0.189000
0.096920
0.113550
-0.183080
0.060200
0.031190
0.064890
0.118600
-0.194380
0.000000
0.000000
0.000000
0.199490
0.021120
-0.018400
-0.111360
-0.234790
-0.155590
0.085360
0.059320
-0.116990
-0.111630
-0.104370
0.077160
0.049550
-0.154270
0.039890
0.204810
0.043730
0.182880
0.000000
-0.062050
-0.003370
0.018430
-0.094880
0.029610
0.065500
0.128530
-0.184830
0.208660
-0.104870
-0.058540
0.245170
0.005160
-0.022560
0.043150
0.156360
0.206150
0.078990
-0.249080
0.108260
-0.121850
-0.196440
0.078050
-0.070990
-0.169790
-0.007780
-0.077970
0.171040
0.152050
-0.079340
-0.133210
-0.267350
0.258940
0.207970
0.050920
-0.105930
-0.005030
-0.130120
-0.186000
0.163140
0.014350
-0.113730
-0.082800
0.193040
0.203520
-0.220620
0.114400
0.001660
0.090640
-0.071990
-0.253210
-0.052360
0.054180
0.364340
0.084380
0.029640
0.174130
-0.113650
-0.049460
0.228350
0.223390
0.040380
0.151120
0.135750
-0.062510
-0.237770
0.173450
-0.049760
-0.201650
0.103110
-0.094630
-0.050130
-0.240190
0.069060
0.369430
-0.086200
0.035300
0.068030
-0.083700
0.148770
-0.198680
0.155740
-0.229500
0.248440
0.165950
0.224030
-0.004060
0.084940
0.248890
0.167210
-0.096800
-0.368100
-0.068220
0.141050
0.017500
0.402260
-0.174740
-0.014400
0.232210
-0.223340
-0.166570
-0.145010
0.078930
-0.003950
-0.072550
-0.101090
0.107350
-0.066710
0.274420
0.083830
0.036360
-0.024760
-0.184710
0.171890
0.148590
-0.024970
-0.033730
-0.286810
-0.090120
-0.064930
0.228430
-0.009960
-0.067730
-0.000990
0.188090
0.012490
-0.113330
0.167660
0.159840
-0.043560
0.156860
-0.044290
0.026170
0.136680
-0.298850
-0.223590
-0.068260
0.043650
0.146300
-0.007100
-0.149040
-0.120920
0.016540
0.175510
0.193050
-0.175980
0.176620
0.078070
0.014610
-0.032580
-0.305120
-0.026210
0.117550
-0.105920
-0.188210
-0.055970
-0.132230
0.061360
0.026730
-0.242460
0.000080
-0.091390
0.105980
0.019380
-0.042420
0.215920
-0.000600
-0.098090
-0.088360
-0.096000
-0.010720
0.021340
0.144630
0.089900
-0.512540
-0.232170
-0.196500
-0.050730
-0.033270
0.227200
0.052630
0.065030
0.182440
0.172210
-0.044070
-0.050080
-0.287680
-0.178620
-0.367980
-0.194340
-0.081610
-0.012670
0.214190
-0.114730
-0.313230
0.036940
-0.057650
-0.186890
0.064250
0.175760
0.014550
-0.204710
-0.098390
-0.064590
0.068340
-0.240160
-0.290860
-0.287540
-0.170930
-0.179340
0.150740
0.082820
-0.054910
-0.099030
0.124760
-0.135250
-0.081050
-0.046350
0.046980
-0.221390
-0.094200
-0.088700
0.301860
0.106490
0.167530
-0.295490
-0.343730
-0.460590
0.109710
0.221860
-0.087960
0.134050
0.032190
-0.110770
-0.129250
0.036870
-0.059870
0.140350
-0.088190
0.176430
-0.237430
0.131090
0.212120
-0.123760
0.025680
0.066300
-0.027680
-0.272700
-0.205090
-0.111720
-0.101460
-0.186780
0.079360
0.131510
0.134030
0.040050
0.083410
-0.244510
-0.114680
0.215760
-0.075280
-0.004630
-0.111340
-0.100350
0.113800
-0.090380
-0.086050
-0.002760
0.191870
0.168710
-0.259190
0.109100
-0.049380
0.073690
0.258010
-0.001240
-0.111660
-0.249030
-0.071000
-0.250520
-0.249280
0.121790
0.221320
0.060140
0.023290
0.244070
-0.104640
-0.122800
-0.138480
-0.097320
-0.031880
-0.072660
-0.167530
-0.042540
0.257020
0.222380
-0.187170
0.176770
-0.048750
-0.062990
0.048430
0.219640
0.009000
-0.055380
-0.096570
-0.009150
0.196350
-0.017330
-0.171900
-0.178730
0.193850
-0.235730
0.272000
-0.040970
-0.067320
-0.052080
0.235120
-0.135730
-0.203190
-0.112750
0.214810
-0.010920
-0.121890
0.103630
-0.233590
0.216630
-0.070290
-0.142790
0.210020
-0.123970
0.234050
0.024250
-0.131000
0.186340
0.144990
-0.044620
0.198540
-0.007560
-0.148060
0.067570
-0.213170
0.155560
-0.170260
-0.149560
0.112470
-0.079010
0.185120
0.033630
0.240440
-0.006100
0.209380
-0.054330
0.064770
0.156160
0.040140
0.108890
0.096570
0.120300
-0.203780
-0.044460
0.000000
-0.088220
-0.008280
-0.195780
0.112790
0.197680
-0.095590
-0.172590
-0.108370
-0.079650
0.107970
-0.045740
0.126040
-0.200830
0.129760
-0.154300
0.169290
0.003480
0.000000
0.000000
0.000000
-0.181720
-0.142730
0.157200
-0.088890
-0.026450
-0.071890
-0.130650
0.097280
-0.206880
0.158180
0.113570
0.206760
-0.263890
-0.087280
-0.199690
0.096200
-0.123180
0.106360
0.000000
0.007330
-0.013240
-0.126250
-0.030750
-0.036790
0.114610
-0.250720
-0.220850
0.146910
-0.102200
0.161860
-0.115940
-0.246600
0.174030
-0.030380
-0.223410
-0.119810
0.156270
-0.020400
-0.089560
-0.067660
-0.202710
0.033190
0.177820
0.094270
0.126010
0.129700
-0.150750
0.047990
0.111760
0.089150
-0.084010
-0.010420
0.042530
-0.150830
-0.136590
-0.075680
-0.048140
-0.131620
-0.200350
0.171550
0.154280
-0.258980
0.145730
0.029250
-0.242370
0.186720
-0.247420
-0.157140
-0.214310
-0.222600
0.009230
-0.061880
-0.105490
0.011200
-0.288050
0.065460
-0.081890
0.116820
0.134080
-0.054000
0.134370
-0.190240
-0.201230
-0.016150
0.081740
0.183130
-0.214410
-0.151060
-0.268520
-0.087320
0.065330
0.116150
0.001230
0.157030
-0.276850
0.055820
-0.111570
0.009630
-0.053600
-0.226870
-0.157120
-0.206930
-0.212450
0.053140
0.101000
-0.106790
0.110760
-0.004850
0.046450
-0.105310
-0.002190
0.214900
-0.201020
0.166350
-0.197210
0.154240
0.099340
0.010150
-0.012560
-0.015470
0.027440
-0.261560
-0.170050
0.045530
-0.211490
0.190440
-0.176450
0.155870
0.143020
-0.183080
0.100460
0.031060
-0.082900
0.178450
0.193280
0.143620
0.010900
0.105660
0.215230
0.097110
0.086270
0.038580
-0.025060
0.177330
-0.063920
-0.249580
-0.049590
-0.025510
0.066480
0.017990
0.062130
0.295600
0.150160
-0.084430
0.062190
-0.204670
-0.265450
0.085570
-0.145010
0.041850
-0.253320
-0.035410
0.048130
0.092260
-0.059230
-0.146770
0.144170
-0.132440
0.177350
0.115890
-0.023500
-0.061600
-0.112200
-0.132740
0.289170
0.181650
0.092340
0.088250
-0.098790
0.072240
-0.201300
-0.100780
0.217570
0.072780
0.034840
-0.137190
0.168150
0.007310
-0.028050
-0.189980
-0.108710
0.264180
-0.027040
-0.019240
0.104990
-0.088900
-0.232810
-0.313530
0.204430
-0.192200
0.007030
0.049840
-0.047240
-0.211340
-0.278920
0.119170
-0.041200
0.205390
-0.056820
0.020660
0.102010
0.150470
-0.180720
0.057920
-0.083410
-0.167450
-0.259760
-0.039940
0.214590
-0.215460
-0.237150
-0.239990
0.243720
0.155170
0.037480
0.134430
0.101610
0.057330
-0.048430
-0.276970
0.122770
-0.202470
-0.006150
0.021760
-0.063750
-0.057570
0.015220
0.061130
0.209630
-0.205820
-0.118250
0.013290
-0.082800
0.202420
-0.251790
-0.226180
0.137610
-0.138460
-0.005210
0.088370
-0.008120
-0.001020
0.102950
-0.088750
-0.079540
-0.009320
0.010340
-0.288840
0.016710
0.067520
-0.234800
-0.100930
0.122020
0.069220
-0.183820
0.076160
0.166320
-0.001140
-0.019310
-0.040700
0.066760
-0.076980
0.029460
0.182110
0.147070
0.104540
0.029190
-0.278920
-0.023240
-0.171490
-0.196200
-0.122460
0.027720
-0.013400
0.079640
-0.117830
-0.224940
-0.112200
-0.092420
-0.340200
-0.173110
-0.140850
-0.106840
-0.034010
0.014110
-0.175050
-0.050800
0.001240
0.081570
0.009500
0.000980
-0.025500
0.180280
-0.023500
-0.138190
0.046790
0.091020
0.165710
0.083200
-0.204580
0.087290
0.010420
-0.191880
0.264890
-0.049170
-0.149990
-0.253550
-0.054790
-0.134830
-0.092720
0.013570
0.141770
0.184190
-0.073390
0.155270
-0.028970
0.029060
-0.231360
-0.263380
-0.143600
-0.215530
0.144950
0.199970
0.063350
0.161740
-0.078180
-0.033670
0.212910
-0.047790
-0.185110
-0.017140
-0.196120
0.122040
0.106690
0.047250
-0.217180
-0.055710
0.095010
0.046850
-0.049160
0.122480
0.145510
-0.259720
-0.157500
0.131280
-0.019730
0.138740
0.075140
0.015300
0.069950
0.271760
0.099890
0.054300
0.145810
0.097260
-0.185880
-0.238470
-0.261400
-0.246580
-0.250560
0.051270
-0.008430
-0.101760
0.138020
0.071400
0.141100
0.234900
0.142380
-0.041610
0.000000
0.122290
-0.133660
0.153260
0.274000
0.168930
0.039520
-0.056970
0.083700
-0.113820
0.161340
-0.186970
0.067960
-0.170340
0.049830
-0.239870
0.218950
0.009300
0.000000
0.000000
0.000000
-0.031390
-0.163600
0.093130
0.168770
-0.136470
-0.196940
0.045930
0.031980
0.016710
0.019660
-0.225070
-0.100560
0.039380
-0.204890
-0.139200
0.059030
-0.212070
-0.006290
0.000000
0.233890
0.115920
0.064300
0.072340
-0.052400
-0.199100
-0.233760
0.188480
-0.251380
0.179140
-0.069010
0.165880
-0.195850
0.019510
0.111930
0.140430
-0.000780
0.059310
-0.062960
0.046180
-0.180040
-0.200000
-0.057740
-0.044220
-0.210810
-0.155800
-0.025680
0.003860
-0.162680
-0.129400
-0.250140
0.069430
0.196960
0.189930
-0.216670
0.204050
-0.156260
-0.141000
0.151720
-0.112490
-0.182770
0.211340
0.121500
0.002420
-0.084330
-0.101490
0.019890
-0.217950
-0.119080
-0.095850
-0.040110
0.073840
-0.068580
-0.122550
-0.077660
0.152250
0.185620
0.189080
-0.103140
0.145030
0.198700
0.224410
0.005370
-0.169480
0.166620
0.065150
-0.024620
-0.066320
0.024630
-0.069750
-0.048650
0.018420
0.252320
0.100020
-0.031690
0.122830
-0.096080
-0.170310
-0.077850
0.004890
0.212050
-0.090670
0.250080
-0.048260
0.053110
0.005720
0.043950
-0.254430
-0.049970
0.079110
-0.167360
0.153710
0.075300
0.228080
-0.038790
-0.090510
-0.134110
-0.209820
-0.133240
0.147550
-0.015750
-0.147310
0.110080
-0.005340
-0.085170
-0.230850
-0.077480
-0.133540
0.095390
0.059300
0.251710
0.121210
0.107260
0.225030
0.007480
0.014560
-0.399620
-0.197830
-0.173650
0.036710
-0.061140
0.248650
-0.123710
-0.113880
0.119590
-0.142900
-0.093750
-0.091870
0.020350
0.011400
-0.092960
0.445550
0.154170
0.495750
0.280130
-0.080700
-0.265700
-0.310630
-0.200160
0.193260
-0.152800
-0.122050
0.094270
0.168590
-0.080510
0.020150
0.080910
0.277570
-0.034730
-0.139010
-0.070900
0.130670
0.115520
0.117540
0.197520
-0.243530
-0.068760
-0.260060
-0.201180
-0.102560
0.081260
-0.047820
-0.007930
0.011260
-0.215650
-0.062970
-0.140370
-0.042340
-0.120140
0.132440
0.012520
0.201800
0.363450
-0.053110
0.272820
-0.016850
-0.103710
-0.137240
0.020290
-0.169750
-0.151010
0.167480
0.001580
-0.080220
-0.201740
-0.314110
0.035900
-0.166870
-0.067910
-0.218490
-0.195510
-0.165680
-0.044000
-0.002300
0.041970
-0.023730
-0.321650
0.021170
0.198940
-0.050720
0.133420
0.238960
-0.103510
0.220200
-0.069860
-0.380270
-0.191400
-0.138790
-0.417450
-0.059480
0.137100
0.136210
0.021170
0.208500
-0.295090
-0.041410
-0.198710
-0.111500
-0.105210
0.070190
-0.133230
0.075550
0.035530
0.206770
-0.187790
-0.418020
-0.450050
-0.397970
-0.049510
-0.130100
0.178550
0.164470
0.044240
0.009740
-0.077270
-0.101840
-0.088220
-0.255300
0.136440
0.023710
-0.109510
-0.143420
0.026190
-0.259420
0.022670
-0.324230
-0.478490
-0.199870
-0.072090
0.290710
0.371470
0.185820
0.157540
0.170450
0.128190
-0.252970
0.115520
-0.234420
0.001480
0.112980
-0.183230
0.123970
0.279420
0.184680
-0.185320
0.041170
-0.022140
0.030950
0.197130
-0.022440
0.136600
0.180240
0.043780
0.084700
-0.091920
-0.134780
0.086150
-0.041610
-0.215910
-0.203620
-0.148600
0.024940
-0.043550
-0.162740
-0.204600
0.015170
-0.259040
-0.274480
-0.038640
0.031490
0.300720
-0.129930
-0.106210
0.213700
0.225320
0.209580
-0.234680
0.200800
0.037350
0.147340
0.115750
-0.071950
-0.152310
-0.090470
-0.125140
-0.078520
0.112210
0.123920
0.131960
0.146410
-0.142730
-0.012270
-0.197630
-0.197120
0.185710
-0.167090
-0.051350
0.043130
0.085180
-0.206790
-0.103690
-0.103080
-0.051900
-0.018020
0.198760
-0.205500
0.098900
-0.041800
0.030960
0.252580
-0.093710
0.212250
-0.095570
-0.022690
0.103840
0.160540
-0.078690
0.193380
0.086380
-0.223070
0.098700
-0.085120
-0.091970
0.117070
0.197040
-0.005470
0.017940
0.222810
0.069680
0.200070
-0.172570
0.167850
0.253460
0.211290
-0.004460
0.103210
0.014060
-0.020220
-0.153860
-0.199120
0.000000
0.070900
0.118260
0.089820
-0.228640
0.228330
0.056910
0.185570
0.219640
0.055710
-0.069790
-0.218010
-0.010470
-0.047960
0.133680
-0.192240
-0.233000
0.121220
0.000000
0.000000
0.000000
0.176140
-0.170950
-0.077110
0.256370
-0.204180
-0.024760
-0.066710
-0.199340
-0.157910
0.054310
-0.180470
-0.015040
0.108220
-0.191810
-0.138640
0.025620
0.023060
0.032800
0.000000
0.164040
0.020160
-0.041950
-0.071230
0.200500
-0.082050
0.036160
-0.140500
0.093500
-0.011210
0.070460
-0.223420
0.003600
-0.101600
-0.166830
-0.000380
-0.217610
0.184750
-0.029370
0.011030
0.001100
0.165530
0.057140
-0.241810
-0.097250
0.155770
0.138160
-0.197920
-0.004550
-0.184970
-0.163100
-0.114840
0.059630
-0.022050
0.173590
0.240520
-0.186370
0.178150
0.211910
0.062060
0.104030
-0.086950
-0.094070
-0.076050
-0.120380
-0.177490
-0.254780
0.045360
-0.037850
0.127480
0.046510
0.033460
0.161610
0.144990
-0.091740
-0.197090
0.114120
-0.199220
-0.035320
0.127670
0.049390
0.254440
0.251780
-0.200950
-0.058040
-0.069950
0.143100
-0.158210
0.063560
0.097530
0.007280
-0.151430
-0.049920
-0.093280
0.179170
0.002900
-0.149310
0.198360
0.145690
0.099490
0.142120
0.207460
0.059750
0.234240
0.263650
0.069230
-0.052080
0.221840
-0.141600
0.226300
-0.005190
0.085430
-0.210060
0.195810
0.209780
-0.223170
-0.144220
0.138120
-0.082470
0.076950
0.200030
0.125290
0.240180
-0.200970
-0.006340
0.254230
-0.079480
-0.196970
0.216920
-0.007330
-0.031530
0.127450
-0.041890
0.093530
0.165520
0.249180
0.022430
-0.244770
-0.219690
0.173820
-0.120910
0.128190
0.089420
-0.091730
-0.099800
0.146230
0.217270
-0.054500
0.100240
-0.029070
0.122270
0.077000
-0.114050
0.188940
-0.127110
0.238520
-0.013570
-0.115710
-0.182640
0.193310
0.118590
-0.163600
0.193070
0.119800
0.287600
0.059750
0.146790
0.022910
0.039680
-0.011730
-0.076730
-0.173670
-0.186280
-0.021720
-0.037880
-0.032850
0.137580
-0.222970
0.066230
0.190330
-0.158020
0.281410
-0.121980
0.071750
0.149000
0.227470
-0.127550
-0.200780
-0.052650
-0.100890
-0.168970
0.058750
-0.062710
0.215040
-0.189040
0.229120
-0.116480
0.227610
-0.112960
-0.109620
0.253460
0.175800
-0.010150
0.301450
0.132360
0.174830
-0.253540
-0.381280
-0.076540
0.272050
0.130060
0.065340
-0.076230
-0.052780
-0.046740
0.116370
0.040940
-0.238160
0.004010
0.211870
-0.076440
0.077040
-0.042060
-0.257480
-0.109750
-0.203590
-0.185440
-0.072010
0.045390
0.071600
0.365850
0.012940
0.009020
-0.182450
-0.127550
-0.061270
-0.182550
0.130490
-0.199840
-0.194860
-0.147220
0.174420
-0.094120
0.139440
-0.079200
-0.189170
-0.115830
-0.015650
0.091750
-0.016690
-0.109830
0.125380
0.250780
-0.231540
-0.023080
0.071420
-0.083330
-0.208930
0.183940
-0.197320
0.037780
-0.248160
0.188630
0.027710
-0.164280
0.204990
0.202660
-0.070020
0.054510
-0.051240
0.277240
0.012980
0.039980
-0.213670
-0.007010
-0.156870
-0.166420
-0.111230
-0.166890
-0.028980
0.079400
0.103520
-0.046740
-0.146730
-0.092320
-0.147170
0.188590
-0.224090
-0.029310
-0.128600
0.183510
0.165390
0.108990
-0.168480
0.177630
0.222300
0.157040
-0.056600
-0.050340
-0.049580
-0.050270
-0.054680
0.073620
-0.039700
-0.004990
0.092380
-0.094640
-0.199410
0.210910
-0.158740
0.213110
0.216990
0.205260
0.031880
0.203350
0.127300
0.157920
0.097070
0.071140
-0.155930
0.083050
0.059070
0.152710
0.028630
-0.139490
-0.135460
-0.211500
0.027790
0.120800
0.098800
-0.133170
0.250480
0.124430
0.228590
-0.208800
-0.100750
0.171330
0.203770
-0.152320
0.018620
-0.175220
0.036030
0.235210
0.114810
0.023840
-0.023370
-0.050610
0.039220
-0.014020
0.075580
0.126630
-0.237980
0.115240
-0.077750
0.178130
-0.076920
-0.240180
-0.079770
-0.082830
0.168710
-0.002440
0.153490
-0.184090
-0.041030
-0.020460
-0.223110
-0.197500
-0.189450
-0.138810
-0.150070
0.215330
0.075420
-0.077540
-0.097200
-0.007610
0.161900
0.084040
0.126690
0.054650
-0.129990
0.000000
-0.014300
-0.081240
-0.004070
0.049930
-0.041700
-0.156930
0.072970
0.027710
0.063250
-0.016750
-0.005280
0.123400
0.042020
-0.022010
0.013680
0.120610
-0.055310
0.000000
0.000000
0.000000
-0.067650
0.141850
-0.174370
0.144320
0.200150
-0.238840
0.064250
0.232990
-0.182870
0.015780
-0.150760
0.185430
-0.109730
-0.049670
-0.103480
0.037300
0.014230
0.079320
0.000000
-0.115020
0.241870
-0.143290
0.067920
0.132900
0.058410
0.005520
-0.125940
0.203710
-0.175140
0.184730
-0.170400
0.215650
0.180060
0.012070
0.202390
0.081250
0.003920
-0.006740
0.136910
0.010480
0.003300
0.126040
0.169670
0.086010
0.148130
-0.273110
-0.158560
-0.166840
-0.204890
0.163730
0.093960
-0.205950
0.066820
-0.077440
-0.150790
-0.170080
-0.186920
0.108190
0.080300
0.037340
0.154830
-0.218240
-0.002070
0.020830
-0.062580
0.137010
0.221790
0.028990
-0.205870
0.199660
0.126240
-0.101000
0.136420
-0.169260
0.011980
0.101600
0.198610
-0.000170
0.002760
0.039310
-0.028620
0.059670
-0.050600
0.194400
-0.019360
0.168580
0.145190
-0.037590
-0.104190
0.152400
0.112070
0.207310
-0.014510
-0.088220
0.112620
-0.083200
-0.036810
0.175370
0.027860
-0.059480
-0.096250
-0.192090
0.079050
0.224840
-0.140080
0.115480
0.233710
-0.220020
0.089290
0.079780
-0.017970
0.135030
0.021480
0.192550
0.016770
-0.126920
0.196150
0.239860
-0.168900
-0.111750
-0.187110
-0.104790
0.024340
0.046180
0.128570
-0.116710
0.206760
0.009200
-0.052910
-0.189880
0.065140
0.016310
0.281990
0.219730
-0.183700
-0.067550
-0.116160
-0.214820
0.001330
0.074140
0.079980
-0.208580
0.129070
0.117440
0.203280
0.184590
-0.032790
0.111990
0.056540
-0.180860
0.067560
0.038460
0.239820
0.120950
0.204530
-0.024290
-0.121230
0.190500
-0.215490
0.019960
0.101080
0.173070
-0.140490
-0.056510
0.308060
0.009900
0.064000
0.102630
-0.100090
0.244780
0.131590
0.025110
-0.216680
0.122270
0.019450
0.230360
-0.191640
-0.196000
0.061240
-0.078650
0.080160
-0.007740
-0.038070
-0.050610
0.137700
-0.305150
-0.188410
-0.305750
0.163840
-0.070910
0.060270
0.235930
0.138270
0.232600
0.190530
0.016390
-0.057350
-0.189450
0.019390
-0.152390
-0.054820
0.258800
0.346360
0.277290
-0.042640
-0.107120
-0.245160
-0.001680
0.129730
0.218470
-0.085220
-0.023210
-0.164790
0.052210
0.107660
0.121750
0.043760
-0.087940
-0.086500
-0.250690
-0.171310
0.072090
-0.082680
-0.027290
-0.177080
-0.228370
-0.079100
-0.176640
-0.076380
-0.042640
-0.265680
-0.413990
-0.333090
0.015250
0.279450
0.234310
-0.036430
0.137080
0.121990
-0.043700
0.077390
0.253380
0.231310
0.168500
0.049800
-0.248430
0.078010
0.130890
0.113480
-0.227180
-0.442900
-0.096990
0.101540
-0.016960
0.207760
-0.031580
-0.014140
0.095030
0.160640
-0.063590
0.164610
-0.118300
0.161800
-0.137440
0.072670
0.088730
0.094800
-0.092870
-0.078650
-0.196520
-0.398510
-0.070730
-0.269160
0.271690
0.125520
-0.156580
0.105880
0.231130
-0.111650
-0.038150
-0.034050
0.141180
0.113690
0.297370
0.240890
-0.029850
0.120280
-0.261310
0.008780
-0.370320
-0.332550
-0.170140
-0.147490
0.307050
0.039510
0.214190
0.029290
0.023510
-0.218660
0.207730
0.134930
0.184130
-0.073260
0.126310
0.272930
-0.083200
0.249140
0.060020
0.088610
0.069790
-0.073740
-0.003650
0.150730
0.296980
0.142510
0.064810
0.139480
-0.011070
-0.225610
0.085990
0.048970
-0.044210
0.048090
0.329680
0.132590
0.283560
-0.197260
0.115360
0.038470
-0.233270
-0.171290
0.188520
-0.081790
-0.154460
0.196410
0.209030
0.223950
0.007290
-0.091520
0.100190
0.152570
0.169320
0.012390
0.014890
0.140960
-0.089620
0.244200
0.030170
-0.194540
0.147470
0.066630
-0.134620
-0.137410
-0.202140
-0.119530
-0.084880
0.206910
-0.040150
0.187980
-0.136990
-0.184830
0.133890
0.159990
0.080330
0.175770
0.236220
-0.189360
0.171710
0.033050
0.016460
-0.071920
0.094520
0.203830
0.004770
0.046800
0.032270
-0.115820
0.177690
0.219830
0.000000
0.050580
-0.141590
-0.020840
0.104820
0.140830
0.182830
0.050770
-0.235330
0.232260
0.102430
0.166740
0.217480
-0.119270
0.169640
0.226470
0.024530
-0.055970
0.000000
0.000000
